{"learner":{"attributes":{"scikit_learn":"{\"_estimator_type\": \"classifier\"}"},"feature_names":[],"feature_types":[],"gradient_booster":{"model":{"cats":{"enc":[],"feature_segments":[],"sorted_idx":[]},"gbtree_model_param":{"num_parallel_tree":"1","num_trees":"1200"},"iteration_indptr":[0,3,6,9,12,15,18,21,24,27,30,33,36,39,42,45,48,51,54,57,60,63,66,69,72,75,78,81,84,87,90,93,96,99,102,105,108,111,114,117,120,123,126,129,132,135,138,141,144,147,150,153,156,159,162,165,168,171,174,177,180,183,186,189,192,195,198,201,204,207,210,213,216,219,222,225,228,231,234,237,240,243,246,249,252,255,258,261,264,267,270,273,276,279,282,285,288,291,294,297,300,303,306,309,312,315,318,321,324,327,330,333,336,339,342,345,348,351,354,357,360,363,366,369,372,375,378,381,384,387,390,393,396,399,402,405,408,411,414,417,420,423,426,429,432,435,438,441,444,447,450,453,456,459,462,465,468,471,474,477,480,483,486,489,492,495,498,501,504,507,510,513,516,519,522,525,528,531,534,537,540,543,546,549,552,555,558,561,564,567,570,573,576,579,582,585,588,591,594,597,600,603,606,609,612,615,618,621,624,627,630,633,636,639,642,645,648,651,654,657,660,663,666,669,672,675,678,681,684,687,690,693,696,699,702,705,708,711,714,717,720,723,726,729,732,735,738,741,744,747,750,753,756,759,762,765,768,771,774,777,780,783,786,789,792,795,798,801,804,807,810,813,816,819,822,825,828,831,834,837,840,843,846,849,852,855,858,861,864,867,870,873,876,879,882,885,888,891,894,897,900,903,906,909,912,915,918,921,924,927,930,933,936,939,942,945,948,951,954,957,960,963,966,969,972,975,978,981,984,987,990,993,996,999,1002,1005,1008,1011,1014,1017,1020,1023,1026,1029,1032,1035,1038,1041,1044,1047,1050,1053,1056,1059,1062,1065,1068,1071,1074,1077,1080,1083,1086,1089,1092,1095,1098,1101,1104,1107,1110,1113,1116,1119,1122,1125,1128,1131,1134,1137,1140,1143,1146,1149,1152,1155,1158,1161,1164,1167,1170,1173,1176,1179,1182,1185,1188,1191,1194,1197,1200],"tree_info":[0,1,2,0,1,2,0,1,2,0,1,2,0,1,2,0,1,2,0,1,2,0,1,2,0,1,2,0,1,2,0,1,2,0,1,2,0,1,2,0,1,2,0,1,2,0,1,2,0,1,2,0,1,2,0,1,2,0,1,2,0,1,2,0,1,2,0,1,2,0,1,2,0,1,2,0,1,2,0,1,2,0,1,2,0,1,2,0,1,2,0,1,2,0,1,2,0,1,2,0,1,2,0,1,2,0,1,2,0,1,2,0,1,2,0,1,2,0,1,2,0,1,2,0,1,2,0,1,2,0,1,2,0,1,2,0,1,2,0,1,2,0,1,2,0,1,2,0,1,2,0,1,2,0,1,2,0,1,2,0,1,2,0,1,2,0,1,2,0,1,2,0,1,2,0,1,2,0,1,2,0,1,2,0,1,2,0,1,2,0,1,2,0,1,2,0,1,2,0,1,2,0,1,2,0,1,2,0,1,2,0,1,2,0,1,2,0,1,2,0,1,2,0,1,2,0,1,2,0,1,2,0,1,2,0,1,2,0,1,2,0,1,2,0,1,2,0,1,2,0,1,2,0,1,2,0,1,2,0,1,2,0,1,2,0,1,2,0,1,2,0,1,2,0,1,2,0,1,2,0,1,2,0,1,2,0,1,2,0,1,2,0,1,2,0,1,2,0,1,2,0,1,2,0,1,2,0,1,2,0,1,2,0,1,2,0,1,2,0,1,2,0,1,2,0,1,2,0,1,2,0,1,2,0,1,2,0,1,2,0,1,2,0,1,2,0,1,2,0,1,2,0,1,2,0,1,2,0,1,2,0,1,2,0,1,2,0,1,2,0,1,2,0,1,2,0,1,2,0,1,2,0,1,2,0,1,2,0,1,2,0,1,2,0,1,2,0,1,2,0,1,2,0,1,2,0,1,2,0,1,2,0,1,2,0,1,2,0,1,2,0,1,2,0,1,2,0,1,2,0,1,2,0,1,2,0,1,2,0,1,2,0,1,2,0,1,2,0,1,2,0,1,2,0,1,2,0,1,2,0,1,2,0,1,2,0,1,2,0,1,2,0,1,2,0,1,2,0,1,2,0,1,2,0,1,2,0,1,2,0,1,2,0,1,2,0,1,2,0,1,2,0,1,2,0,1,2,0,1,2,0,1,2,0,1,2,0,1,2,0,1,2,0,1,2,0,1,2,0,1,2,0,1,2,0,1,2,0,1,2,0,1,2,0,1,2,0,1,2,0,1,2,0,1,2,0,1,2,0,1,2,0,1,2,0,1,2,0,1,2,0,1,2,0,1,2,0,1,2,0,1,2,0,1,2,0,1,2,0,1,2,0,1,2,0,1,2,0,1,2,0,1,2,0,1,2,0,1,2,0,1,2,0,1,2,0,1,2,0,1,2,0,1,2,0,1,2,0,1,2,0,1,2,0,1,2,0,1,2,0,1,2,0,1,2,0,1,2,0,1,2,0,1,2,0,1,2,0,1,2,0,1,2,0,1,2,0,1,2,0,1,2,0,1,2,0,1,2,0,1,2,0,1,2,0,1,2,0,1,2,0,1,2,0,1,2,0,1,2,0,1,2,0,1,2,0,1,2,0,1,2,0,1,2,0,1,2,0,1,2,0,1,2,0,1,2,0,1,2,0,1,2,0,1,2,0,1,2,0,1,2,0,1,2,0,1,2,0,1,2,0,1,2,0,1,2,0,1,2,0,1,2,0,1,2,0,1,2,0,1,2,0,1,2,0,1,2,0,1,2,0,1,2,0,1,2,0,1,2,0,1,2,0,1,2,0,1,2,0,1,2,0,1,2,0,1,2,0,1,2,0,1,2,0,1,2,0,1,2,0,1,2,0,1,2,0,1,2,0,1,2,0,1,2,0,1,2,0,1,2,0,1,2,0,1,2,0,1,2,0,1,2,0,1,2,0,1,2,0,1,2,0,1,2,0,1,2,0,1,2,0,1,2,0,1,2,0,1,2,0,1,2,0,1,2,0,1,2,0,1,2,0,1,2,0,1,2,0,1,2,0,1,2,0,1,2,0,1,2,0,1,2,0,1,2,0,1,2,0,1,2,0,1,2,0,1,2,0,1,2,0,1,2,0,1,2,0,1,2,0,1,2,0,1,2,0,1,2,0,1,2,0,1,2,0,1,2,0,1,2,0,1,2,0,1,2,0,1,2,0,1,2,0,1,2,0,1,2,0,1,2,0,1,2,0,1,2,0,1,2,0,1,2,0,1,2,0,1,2,0,1,2,0,1,2,0,1,2,0,1,2,0,1,2,0,1,2,0,1,2,0,1,2,0,1,2,0,1,2,0,1,2,0,1,2,0,1,2,0,1,2,0,1,2,0,1,2,0,1,2,0,1,2,0,1,2,0,1,2,0,1,2,0,1,2,0,1,2,0,1,2,0,1,2,0,1,2,0,1,2,0,1,2,0,1,2,0,1,2,0,1,2,0,1,2,0,1,2,0,1,2,0,1,2,0,1,2,0,1,2,0,1,2,0,1,2,0,1,2,0,1,2,0,1,2,0,1,2,0,1,2,0,1,2,0,1,2,0,1,2,0,1,2,0,1,2,0,1,2,0,1,2,0,1,2,0,1,2,0,1,2,0,1,2,0,1,2,0,1,2,0,1,2,0,1,2,0,1,2,0,1,2,0,1,2,0,1,2,0,1,2,0,1,2,0,1,2,0,1,2],"trees":[{"base_weights":[-4.616854E-4,-2.5970745E-1,3.8508078E-1,-4.684623E-1,-9.5096946E-2,2.2467944E-1,6.494129E-1,-6.6027695E-1,-3.8402957E-1,-1.9962732E-1,-2.2861525E-2,1.5356328E-1,3.1705678E-1,5.378E-1,8.0877835E-1,-7.464385E-1,-5.9182894E-1,-4.2916068E-1,-3.460254E-1,-2.0603286E-1,1.0316752E-2,-6.986498E-2,2.4830004E-2,1.4459603E-1,3.5060832E-1,2.7807915E-1,3.8336334E-1,4.9399707E-1,6.1940086E-1,1.0031065E0,7.4938023E-1,-3.0201962E-2,-1.1717406E-2,-2.404719E-2,2.6907974E-3,-1.6507901E-2,-2.1827502E-2,3.5161242E-2,-1.396926E-2,-7.338982E-3,-1.0022257E-2,-9.04289E-4,3.4265745E-2,1.0946686E-3,-4.5507564E-3,9.367979E-3,4.4890816E-4,1.3248295E-2,5.3528403E-3,-2.3181323E-2,1.6525809E-2,1.244718E-2,5.8371257E-3,7.6764524E-3,1.6917884E-2,1.9140223E-2,2.6829068E-2,2.5274614E-2,-1.2322222E-2,4.081209E-2,2.772014E-2,3.122307E-2,2.339971E-2],"categories":[],"categories_nodes":[],"categories_segments":[],"categories_sizes":[],"default_left":[0,0,0,0,0,0,0,0,0,0,0,0,0,0,0,0,0,0,0,0,0,0,0,0,0,0,0,0,0,0,0,0,0,0,0,0,0,0,0,0,0,0,0,0,0,0,0,0,0,0,0,0,0,0,0,0,0,0,0,0,0,0,0],"id":0,"left_children":[1,3,5,7,9,11,13,15,17,19,21,23,25,27,29,31,33,35,37,39,41,43,45,47,49,51,53,55,57,59,61,-1,-1,-1,-1,-1,-1,-1,-1,-1,-1,-1,-1,-1,-1,-1,-1,-1,-1,-1,-1,-1,-1,-1,-1,-1,-1,-1,-1,-1,-1,-1,-1],"loss_changes":[1.2263633E4,2.520975E3,2.0914058E3,5.234844E2,3.0971732E2,2.0161108E2,3.3079834E2,5.771826E1,3.8300293E1,2.256427E1,5.438835E1,3.0557587E1,3.433972E1,3.875659E1,8.76167E1,1.6743652E1,3.407617E1,1.9366821E1,4.817151E1,1.624878E1,1.3945527E1,5.2174118E1,3.4278168E1,3.3282715E1,4.408436E1,3.6716614E1,3.72959E1,1.910437E1,4.4426758E1,8.67981E0,2.9558838E1,0E0,0E0,0E0,0E0,0E0,0E0,0E0,0E0,0E0,0E0,0E0,0E0,0E0,0E0,0E0,0E0,0E0,0E0,0E0,0E0,0E0,0E0,0E0,0E0,0E0,0E0,0E0,0E0,0E0,0E0,0E0,0E0],"parents":[2147483647,0,0,1,1,2,2,3,3,4,4,5,5,6,6,7,7,8,8,9,9,10,10,11,11,12,12,13,13,14,14,15,15,16,16,17,17,18,18,19,19,20,20,21,21,22,22,23,23,24,24,25,25,26,26,27,27,28,28,29,29,30,30],"right_children":[2,4,6,8,10,12,14,16,18,20,22,24,26,28,30,32,34,36,38,40,42,44,46,48,50,52,54,56,58,60,62,-1,-1,-1,-1,-1,-1,-1,-1,-1,-1,-1,-1,-1,-1,-1,-1,-1,-1,-1,-1,-1,-1,-1,-1,-1,-1,-1,-1,-1,-1,-1,-1],"split_conditions":[2.2804055E-1,3.5714287E-1,6.756757E-1,2.0833333E-1,4.2553192E-1,6.0240966E-1,6.639676E-1,1.4285715E-1,-2.4786325E-1,3.4E1,4.356E-1,6.53E-1,4.4306844E-1,5.8928573E-1,1.1111111E-1,4.2625748E-2,7.608695E-2,1.1835749E-1,1.227E-1,1.1336898E-1,5.211E-1,-6.7476383E-3,-4.8955556E-2,-2.930403E-2,-2.745098E-2,2.608E-1,4.668E-1,2.55E1,7E0,1E0,2.262E-1,-3.0201962E-2,-1.1717406E-2,-2.404719E-2,2.6907974E-3,-1.6507901E-2,-2.1827502E-2,3.5161242E-2,-1.396926E-2,-7.338982E-3,-1.0022257E-2,-9.04289E-4,3.4265745E-2,1.0946686E-3,-4.5507564E-3,9.367979E-3,4.4890816E-4,1.3248295E-2,5.3528403E-3,-2.3181323E-2,1.6525809E-2,1.244718E-2,5.8371257E-3,7.6764524E-3,1.6917884E-2,1.9140223E-2,2.6829068E-2,2.5274614E-2,-1.2322222E-2,4.081209E-2,2.772014E-2,3.122307E-2,2.339971E-2],"split_indices":[15,10,10,10,10,10,15,10,15,26,21,21,15,15,14,0,2,17,23,17,21,5,18,2,2,23,21,26,24,30,23,0,0,0,0,0,0,0,0,0,0,0,0,0,0,0,0,0,0,0,0,0,0,0,0,0,0,0,0,0,0,0,0],"split_type":[0,0,0,0,0,0,0,0,0,0,0,0,0,0,0,0,0,0,0,0,0,0,0,0,0,0,0,0,0,0,0,0,0,0,0,0,0,0,0,0,0,0,0,0,0,0,0,0,0,0,0,0,0,0,0,0,0,0,0,0,0,0,0],"sum_hessian":[1.2269549E5,7.336448E4,4.933102E4,3.2344082E4,4.102039E4,3.0702457E4,1.8628562E4,9.883256E3,2.2460826E4,1.6761715E4,2.4258678E4,1.7349664E4,1.3352794E4,1.0958616E4,7.669947E3,4.3704355E3,5.5128203E3,1.0261751E4,1.2199074E4,1.6265925E4,4.9578915E2,1.2218295E4,1.2040383E4,1.6596615E4,7.5304755E2,8.413631E3,4.939164E3,7.1362095E3,3.8224062E3,1.7914448E3,5.878502E3,4.288133E3,8.230297E1,5.4359385E3,7.688181E1,8.996158E3,1.265593E3,3.1048426E1,1.2168026E4,1.0800909E4,5.4650156E3,4.7804718E2,1.7741957E1,3.8002288E3,8.418066E3,7.333342E2,1.1307048E4,9.038542E2,1.5692762E4,4.6819054E1,7.0622845E2,6.726666E3,1.6869645E3,8.476713E2,4.0914924E3,6.565017E3,5.7119244E2,3.7721372E3,5.026888E1,1.6948497E3,9.65951E1,4.9371924E3,9.413094E2],"tree_param":{"num_deleted":"0","num_feature":"31","num_nodes":"63","size_leaf_vector":"1"}},{"base_weights":[-1.7358548E-3,-1.9689952E-1,9.930712E-2,-4.490695E-1,-1.4486486E-1,3.7410878E-2,1.976871E-1,-5.139252E-1,-4.033808E-1,-2.4747439E-1,-1.07360944E-1,1.7506818E-4,9.1505855E-2,1.3522854E-1,2.2976406E-1,-5.364989E-1,-1.9898172E-1,-2.2247459E-1,-4.4069257E-1,-3.1126547E-1,-2.027888E-1,-2.5327095E-1,-9.328456E-2,-4.2852405E-3,3.2250288E-1,2.388101E-1,7.590081E-2,1.6989754E-1,2.2377532E-3,1.897597E-1,3.117943E-1,-8.719686E-3,-2.1830609E-2,1.678465E-2,-1.642962E-2,-1.7222252E-2,-4.347789E-3,-1.7781517E-2,7.424602E-3,-8.814812E-3,-1.4754364E-2,-1.0234894E-2,-4.4883536E-3,-1.4588582E-2,-5.712462E-3,-4.3028845E-3,7.086542E-5,4.084118E-4,-4.267072E-3,-3.975937E-3,2.6995007E-2,5.307323E-3,2.652096E-2,3.2018244E-3,-1.8759005E-2,-1.4931501E-2,7.1753375E-3,2.0431036E-3,-1.1197164E-2,1.3846884E-2,6.66106E-3,8.049571E-4,1.3936824E-2],"categories":[],"categories_nodes":[],"categories_segments":[],"categories_sizes":[],"default_left":[0,0,0,0,0,0,0,0,0,0,0,0,0,0,0,0,0,0,0,0,0,0,0,0,0,0,0,0,0,0,0,0,0,0,0,0,0,0,0,0,0,0,0,0,0,0,0,0,0,0,0,0,0,0,0,0,0,0,0,0,0,0,0],"id":1,"left_children":[1,3,5,7,9,11,13,15,17,19,21,23,25,27,29,31,33,35,37,39,41,43,45,47,49,51,53,55,57,59,61,-1,-1,-1,-1,-1,-1,-1,-1,-1,-1,-1,-1,-1,-1,-1,-1,-1,-1,-1,-1,-1,-1,-1,-1,-1,-1,-1,-1,-1,-1,-1,-1],"loss_changes":[1.773403E3,4.0240894E2,3.607743E2,1.5247437E1,9.780548E1,7.325291E1,4.577472E1,1.5203735E1,2.06503E1,1.9285614E1,3.819919E1,3.100784E1,3.4034622E1,3.5795074E1,4.9491272E1,5.7614136E0,1.9376484E1,1.2441109E1,6.2617188E0,1.45217285E1,1.9196594E1,2.0056938E1,2.308551E1,3.1552603E1,4.3889538E1,6.3728333E1,3.0282494E1,3.1790726E1,2.2147932E1,3.6824677E1,5.2862427E1,0E0,0E0,0E0,0E0,0E0,0E0,0E0,0E0,0E0,0E0,0E0,0E0,0E0,0E0,0E0,0E0,0E0,0E0,0E0,0E0,0E0,0E0,0E0,0E0,0E0,0E0,0E0,0E0,0E0,0E0,0E0,0E0],"parents":[2147483647,0,0,1,1,2,2,3,3,4,4,5,5,6,6,7,7,8,8,9,9,10,10,11,11,12,12,13,13,14,14,15,15,16,16,17,17,18,18,19,19,20,20,21,21,22,22,23,23,24,24,25,25,26,26,27,27,28,28,29,29,30,30],"right_children":[2,4,6,8,10,12,14,16,18,20,22,24,26,28,30,32,34,36,38,40,42,44,46,48,50,52,54,56,58,60,62,-1,-1,-1,-1,-1,-1,-1,-1,-1,-1,-1,-1,-1,-1,-1,-1,-1,-1,-1,-1,-1,-1,-1,-1,-1,-1,-1,-1,-1,-1,-1,-1],"split_conditions":[2.5641027E-1,1.6E-1,3.0769232E-1,1.1111111E-1,2.1052632E-1,2.512E-1,2.734E-1,1.15384616E-1,-2.2605763E-1,-6.67027E-3,1.5151516E-1,1.5429123E-1,6.5474704E-2,-5.0357144E-2,1.1363637E-1,-3.621765E-2,-4.1666668E-2,-4.2424243E-2,9.6153843E-1,5.1E1,7.518797E-1,1.0971874E-1,2.482E-1,1.1805986E-1,2.7027026E-1,3.9572414E-2,1E2,2.6666668E-1,4.418E-1,-1.1254809E-1,2.5E-1,-8.719686E-3,-2.1830609E-2,1.678465E-2,-1.642962E-2,-1.7222252E-2,-4.347789E-3,-1.7781517E-2,7.424602E-3,-8.814812E-3,-1.4754364E-2,-1.0234894E-2,-4.4883536E-3,-1.4588582E-2,-5.712462E-3,-4.3028845E-3,7.086542E-5,4.084118E-4,-4.267072E-3,-3.975937E-3,2.6995007E-2,5.307323E-3,2.652096E-2,3.2018244E-3,-1.8759005E-2,-1.4931501E-2,7.1753375E-3,2.0431036E-3,-1.1197164E-2,1.3846884E-2,6.66106E-3,8.049571E-4,1.3936824E-2],"split_indices":[14,14,14,14,14,23,23,17,18,20,11,1,17,20,17,20,3,4,9,27,9,17,23,17,14,18,27,13,22,18,12,0,0,0,0,0,0,0,0,0,0,0,0,0,0,0,0,0,0,0,0,0,0,0,0,0,0,0,0,0,0,0,0],"split_type":[0,0,0,0,0,0,0,0,0,0,0,0,0,0,0,0,0,0,0,0,0,0,0,0,0,0,0,0,0,0,0,0,0,0,0,0,0,0,0,0,0,0,0,0,0,0,0,0,0,0,0,0,0,0,0,0,0,0,0,0,0,0,0],"sum_hessian":[8.992704E4,3.067622E4,5.925082E4,5.245579E3,2.5430643E4,3.6370523E4,2.2880297E4,2.1628914E3,3.0826877E3,6.8047637E3,1.8625879E4,2.1543854E4,1.4826672E4,7.766369E3,1.5113928E4,2.0172809E3,1.4561041E2,5.287388E2,2.553949E3,2.7997566E3,4.005007E3,1.6366754E3,1.6989203E4,2.1250469E4,2.9338336E2,1.4182598E3,1.3408412E4,6.159609E3,1.6067604E3,1.0162453E4,4.9514746E3,5.8027912E1,1.9592529E3,3.6763023E1,1.0884739E2,1.8561723E2,3.4312155E2,2.5388113E3,1.5137716E1,1.0884739E3,1.7112827E3,2.523313E3,1.4816941E3,8.131116E2,8.2356384E2,1.4770086E4,2.219117E3,1.8615066E4,2.6354043E3,1.3371649E2,1.5966685E2,1.1356891E3,2.825707E2,1.3308215E4,1.00197266E2,1.04882744E2,6.054726E3,1.3706841E3,2.3607628E2,1.3119354E3,8.850518E3,5.52887E2,4.398588E3],"tree_param":{"num_deleted":"0","num_feature":"31","num_nodes":"63","size_leaf_vector":"1"}},{"base_weights":[6.3108426E-4,-2.0459619E-1,5.4491746E-1,-3.8277912E-1,-2.5327706E-3,1.0281209E0,4.1384146E-1,-2.84096E-1,-5.3865284E-1,8.861189E-2,-1.0770185E-1,8.2394606E-1,1.187792E0,2.9762137E-1,5.536248E-1,-2.408852E-1,-3.640827E-1,-6.101519E-1,-4.6745396E-1,-2.747625E-2,1.1562778E-1,-2.2147274E-1,-7.836998E-2,1.0508757E0,7.646723E-1,1.4234887E0,1.1231797E0,6.359598E-1,2.845951E-1,4.4902015E-1,6.0591346E-1,-9.831481E-3,1.1530101E-2,-1.6026422E-2,-1.2435908E-2,-2.7055955E-2,-2.2754898E-2,-2.3064567E-2,-1.7909916E-2,-1.7551674E-3,2.9486993E-2,5.0729737E-3,-2.270052E-3,-9.172152E-3,5.557698E-2,-3.3579112E-3,2.6633631E-2,4.940377E-2,3.2743838E-2,3.9350793E-2,2.805842E-2,5.7756346E-2,3.7946284E-2,4.8515376E-2,3.988474E-2,3.1068798E-2,9.7964555E-3,1.3310809E-2,9.160897E-3,2.414565E-2,1.418146E-2,2.5845584E-2,1.8036325E-2],"categories":[],"categories_nodes":[],"categories_segments":[],"categories_sizes":[],"default_left":[0,0,0,0,0,0,0,0,0,0,0,0,0,0,0,0,0,0,0,0,0,0,0,0,0,0,0,0,0,0,0,0,0,0,0,0,0,0,0,0,0,0,0,0,0,0,0,0,0,0,0,0,0,0,0,0,0,0,0,0,0,0,0],"id":2,"left_children":[1,3,5,7,9,11,13,15,17,19,21,23,25,27,29,31,33,35,37,39,41,43,45,47,49,51,53,55,57,59,61,-1,-1,-1,-1,-1,-1,-1,-1,-1,-1,-1,-1,-1,-1,-1,-1,-1,-1,-1,-1,-1,-1,-1,-1,-1,-1,-1,-1,-1,-1,-1,-1],"loss_changes":[1.2216372E4,2.8593906E3,1.8960889E3,6.4893896E2,3.5675894E2,2.071084E2,3.8246045E2,8.91792E1,8.288672E1,6.2541763E1,5.7618317E1,3.6776123E1,5.270752E1,5.642932E1,5.8110107E1,4.3599304E1,1.743396E1,2.180127E1,1.7282227E1,4.717417E1,3.1232529E1,4.4868256E1,5.7035072E1,2.3532959E1,3.0025146E1,5.8255615E0,3.0424316E1,2.5901764E1,3.3040344E1,5.181958E1,4.4031006E1,0E0,0E0,0E0,0E0,0E0,0E0,0E0,0E0,0E0,0E0,0E0,0E0,0E0,0E0,0E0,0E0,0E0,0E0,0E0,0E0,0E0,0E0,0E0,0E0,0E0,0E0,0E0,0E0,0E0,0E0,0E0,0E0],"parents":[2147483647,0,0,1,1,2,2,3,3,4,4,5,5,6,6,7,7,8,8,9,9,10,10,11,11,12,12,13,13,14,14,15,15,16,16,17,17,18,18,19,19,20,20,21,21,22,22,23,23,24,24,25,25,26,26,27,27,28,28,29,29,30,30],"right_children":[2,4,6,8,10,12,14,16,18,20,22,24,26,28,30,32,34,36,38,40,42,44,46,48,50,52,54,56,58,60,62,-1,-1,-1,-1,-1,-1,-1,-1,-1,-1,-1,-1,-1,-1,-1,-1,-1,-1,-1,-1,-1,-1,-1,-1,-1,-1,-1,-1,-1,-1,-1,-1],"split_conditions":[4.4444445E-1,2.857143E-1,-5.126263E-1,4.9917898E-1,1.0797342E-1,7.751938E-1,5.464481E-1,3.9553428E-1,1.3333334E-1,2.726E-1,2.304E-1,2.7E1,1E-1,-1.507325E-1,5.847953E-1,4.2E1,2.234E-1,8.3333336E-2,1.079E-1,5.050505E-1,3.218E-1,2.0277777E-1,5.68E-1,2.239E-1,-2.7777778E-2,1.7316017E-2,-3.6044696E-3,1.6E1,3.386E-1,-3.076923E-2,3.511E-1,-9.831481E-3,1.1530101E-2,-1.6026422E-2,-1.2435908E-2,-2.7055955E-2,-2.2754898E-2,-2.3064567E-2,-1.7909916E-2,-1.7551674E-3,2.9486993E-2,5.0729737E-3,-2.270052E-3,-9.172152E-3,5.557698E-2,-3.3579112E-3,2.6633631E-2,4.940377E-2,3.2743838E-2,3.9350793E-2,2.805842E-2,5.7756346E-2,3.7946284E-2,4.8515376E-2,3.988474E-2,3.1068798E-2,9.7964555E-3,1.3310809E-2,9.160897E-3,2.414565E-2,1.418146E-2,2.5845584E-2,1.8036325E-2],"split_indices":[12,12,15,15,15,12,12,15,12,22,22,27,14,0,12,25,22,12,22,11,23,8,21,21,2,2,5,26,21,0,21,0,0,0,0,0,0,0,0,0,0,0,0,0,0,0,0,0,0,0,0,0,0,0,0,0,0,0,0,0,0,0,0],"split_type":[0,0,0,0,0,0,0,0,0,0,0,0,0,0,0,0,0,0,0,0,0,0,0,0,0,0,0,0,0,0,0,0,0,0,0,0,0,0,0,0,0,0,0,0,0,0,0,0,0,0,0,0,0,0,0,0,0,0,0,0,0,0,0],"sum_hessian":[1.0936305E5,7.941824E4,2.9944805E4,4.220222E4,3.721602E4,6.38805E3,2.3556754E4,2.5843959E4,1.6358261E4,1.9936918E4,1.7279102E4,2.8063262E3,3.5817236E3,1.2864591E4,1.0692164E4,1.6782758E4,9.0612E3,8.157446E3,8.200815E3,3.763088E3,1.617383E4,3.5396682E3,1.3739433E4,5.773865E2,2.2289397E3,7.657599E2,2.8159639E3,4.7487628E2,1.2389715E4,3.567267E3,7.1248965E3,1.6629432E4,1.5332721E2,5.3638237E3,3.6973762E3,3.1248086E3,5.032637E3,1.2489597E3,6.951856E3,3.68511E3,7.797784E1,1.5188155E4,9.856749E2,3.5234592E3,1.6208878E1,1.3638236E4,1.0119596E2,3.1935867E2,2.580278E2,4.9546594E2,1.7334736E3,7.320279E2,3.3731987E1,1.639725E3,1.1762388E3,3.4827182E2,1.2660447E2,6.632935E3,5.75678E3,1.3505938E3,2.2166733E3,5.6538315E3,1.4710651E3],"tree_param":{"num_deleted":"0","num_feature":"31","num_nodes":"63","size_leaf_vector":"1"}},{"base_weights":[-1.15352974E-4,-2.5176716E-1,3.7204218E-1,-4.5213702E-1,-9.518982E-2,2.167712E-1,6.2752295E-1,-6.4262897E-1,-3.6802572E-1,-1.9679824E-1,-2.5335303E-2,1.5108824E-1,3.0195227E-1,5.199491E-1,7.8084546E-1,-5.790304E-1,-7.357474E-1,-3.540556E-1,-5.0119644E-1,-1.7361695E-1,-2.4302612E-1,1.0313001E-1,-3.861378E-2,1.5460809E-1,-3.4804675E-1,7.296362E-1,2.9630142E-1,4.7901794E-1,5.949647E-1,9.6557343E-1,7.24837E-1,-1.1945915E-2,-2.3796748E-2,-2.9759094E-2,-9.88978E-3,3.344436E-2,-1.4306418E-2,-2.7509123E-2,-1.7465424E-2,-7.228256E-3,1.0944841E-2,-7.832004E-3,-1.47669725E-2,-2.4123113E-3,7.1488945E-3,-5.415005E-3,-6.9252966E-4,4.4905907E-3,8.030465E-3,3.2642983E-2,-2.1198992E-2,3.046283E-3,3.609447E-2,1.2390971E-2,4.6020104E-3,3.2865833E-2,1.8841041E-2,2.4213606E-2,-1.1335475E-2,3.9164033E-2,2.5554933E-2,3.0080687E-2,2.148008E-2],"categories":[],"categories_nodes":[],"categories_segments":[],"categories_sizes":[],"default_left":[0,0,0,0,0,0,0,0,0,0,0,0,0,0,0,0,0,0,0,0,0,0,0,0,0,0,0,0,0,0,0,0,0,0,0,0,0,0,0,0,0,0,0,0,0,0,0,0,0,0,0,0,0,0,0,0,0,0,0,0,0,0,0],"id":3,"left_children":[1,3,5,7,9,11,13,15,17,19,21,23,25,27,29,31,33,35,37,39,41,43,45,47,49,51,53,55,57,59,61,-1,-1,-1,-1,-1,-1,-1,-1,-1,-1,-1,-1,-1,-1,-1,-1,-1,-1,-1,-1,-1,-1,-1,-1,-1,-1,-1,-1,-1,-1,-1,-1],"loss_changes":[1.1495678E4,2.2973486E3,1.9640596E3,5.143364E2,2.9175116E2,1.7223645E2,3.0818115E2,5.770166E1,4.119751E1,1.7862427E1,4.155542E1,3.059253E1,3.2085938E1,3.3392822E1,7.8956055E1,2.5795532E1,1.5749268E1,8.6803955E1,2.5030884E1,3.5420746E1,3.316867E1,2.8213682E1,4.5493946E1,3.370157E1,2.622189E1,1.9465813E1,3.2242065E1,1.8993408E1,3.555725E1,7.130493E0,2.9715576E1,0E0,0E0,0E0,0E0,0E0,0E0,0E0,0E0,0E0,0E0,0E0,0E0,0E0,0E0,0E0,0E0,0E0,0E0,0E0,0E0,0E0,0E0,0E0,0E0,0E0,0E0,0E0,0E0,0E0,0E0,0E0,0E0],"parents":[2147483647,0,0,1,1,2,2,3,3,4,4,5,5,6,6,7,7,8,8,9,9,10,10,11,11,12,12,13,13,14,14,15,15,16,16,17,17,18,18,19,19,20,20,21,21,22,22,23,23,24,24,25,25,26,26,27,27,28,28,29,29,30,30],"right_children":[2,4,6,8,10,12,14,16,18,20,22,24,26,28,30,32,34,36,38,40,42,44,46,48,50,52,54,56,58,60,62,-1,-1,-1,-1,-1,-1,-1,-1,-1,-1,-1,-1,-1,-1,-1,-1,-1,-1,-1,-1,-1,-1,-1,-1,-1,-1,-1,-1,-1,-1,-1,-1],"split_conditions":[2.2804055E-1,3.5714287E-1,6.756757E-1,2.0833333E-1,4.2553192E-1,6.0240966E-1,6.639676E-1,7.751938E-1,6.369427E-1,1.1336898E-1,-1.3157895E-2,6.349207E-2,5.5167057E-2,5.8928573E-1,1.1111111E-1,-8.465608E-2,5.0125312E-2,1.227E-1,-6.140351E-2,3.414E-1,1.0752688E-2,1.2775841E-1,-1.08404875E-1,2.9644808E-1,1.9E1,1.876E-1,2.9E1,-1.5E1,7E0,1.1862745E-1,2.348E-1,-1.1945915E-2,-2.3796748E-2,-2.9759094E-2,-9.88978E-3,3.344436E-2,-1.4306418E-2,-2.7509123E-2,-1.7465424E-2,-7.228256E-3,1.0944841E-2,-7.832004E-3,-1.47669725E-2,-2.4123113E-3,7.1488945E-3,-5.415005E-3,-6.9252966E-4,4.4905907E-3,8.030465E-3,3.2642983E-2,-2.1198992E-2,3.046283E-3,3.609447E-2,1.2390971E-2,4.6020104E-3,3.2865833E-2,1.8841041E-2,2.4213606E-2,-1.1335475E-2,3.9164033E-2,2.5554933E-2,3.0080687E-2,2.148008E-2],"split_indices":[15,10,10,10,10,10,15,12,12,17,2,2,17,15,14,1,0,23,4,23,2,15,18,15,27,22,25,24,24,17,23,0,0,0,0,0,0,0,0,0,0,0,0,0,0,0,0,0,0,0,0,0,0,0,0,0,0,0,0,0,0,0,0],"split_type":[0,0,0,0,0,0,0,0,0,0,0,0,0,0,0,0,0,0,0,0,0,0,0,0,0,0,0,0,0,0,0,0,0,0,0,0,0,0,0,0,0,0,0,0,0,0,0,0,0,0,0,0,0,0,0,0,0,0,0,0,0,0,0],"sum_hessian":[1.22744234E5,7.3228164E4,4.951607E4,3.2120928E4,4.110724E4,3.0799564E4,1.8716506E4,9.836278E3,2.228465E4,1.6745889E4,2.436135E4,1.7392324E4,1.340724E4,1.1002204E4,7.7143022E3,5.849466E3,3.9868118E3,2.0172852E4,2.1117979E3,1.1157704E4,5.588185E3,2.2808184E3,2.2080531E4,1.7271418E4,1.2090589E2,1.7293407E2,1.3234306E4,7.1238833E3,3.8783203E3,1.7905736E3,5.9237285E3,3.150928E2,5.534373E3,3.9200422E3,6.67697E1,6.013483E1,2.0112717E4,5.401046E2,1.5716932E3,1.0984403E4,1.7330142E2,4.068433E3,1.5197518E3,7.209455E2,1.5598729E3,3.9819216E3,1.809861E4,9.010438E3,8.2609795E3,1.5795875E1,1.05110016E2,3.6575706E1,1.3635835E2,1.2317458E4,9.168478E2,1.5977296E2,6.9641104E3,3.8334624E3,4.4857975E1,1.7171691E3,7.3404495E1,5.1718174E3,7.5191095E2],"tree_param":{"num_deleted":"0","num_feature":"31","num_nodes":"63","size_leaf_vector":"1"}},{"base_weights":[9.2556945E-4,-2.2819543E-1,8.239107E-2,-4.3617767E-1,-1.6968642E-1,2.386257E-2,1.9290237E-1,-5.1134056E-1,-3.8431552E-1,-2.4282898E-1,-1.2721322E-1,-1.0654781E-2,8.373555E-2,1.3481331E-1,2.2399478E-1,-5.3550154E-1,-1.86896E-1,-4.325826E-1,-2.4145837E-1,-1.5830964E-1,-2.749049E-1,-1.5983309E-1,-4.761305E-2,-2.8823065E-3,-2.257362E-1,6.548682E-2,1.8650682E-1,1.4189242E-1,-3.6926997E-1,3.369929E-1,2.0259334E-1,-1.9224571E-2,-2.3385655E-2,1.7118521E-2,-1.5424283E-2,6.4785645E-4,-1.7724905E-2,-1.0572715E-2,3.1429596E-2,-7.3554143E-3,1.6911784E-2,6.2335655E-3,-1.1248916E-2,-3.1827532E-3,-7.4098897E-3,9.184623E-3,-3.544422E-3,4.529558E-4,-3.9727543E-3,-1.5090325E-2,-4.9147643E-3,-5.574415E-3,2.9919967E-3,2.2028953E-2,5.6774975E-3,1.7434169E-3,6.975864E-3,-1.9964632E-2,1.3661139E-2,1.6741203E-2,4.191858E-3,8.419873E-3,-7.8729866E-4],"categories":[],"categories_nodes":[],"categories_segments":[],"categories_sizes":[],"default_left":[0,0,0,0,0,0,0,0,0,0,0,0,0,0,0,0,0,0,0,0,0,0,0,0,0,0,0,0,0,0,0,0,0,0,0,0,0,0,0,0,0,0,0,0,0,0,0,0,0,0,0,0,0,0,0,0,0,0,0,0,0,0,0],"id":4,"left_children":[1,3,5,7,9,11,13,15,17,19,21,23,25,27,29,31,33,35,37,39,41,43,45,47,49,51,53,55,57,59,61,-1,-1,-1,-1,-1,-1,-1,-1,-1,-1,-1,-1,-1,-1,-1,-1,-1,-1,-1,-1,-1,-1,-1,-1,-1,-1,-1,-1,-1,-1,-1,-1],"loss_changes":[1.6776964E3,2.8675366E2,4.288548E2,1.9886963E1,5.7098328E1,8.959961E1,4.13985E1,1.6360657E1,2.0976044E1,1.823468E1,3.020694E1,4.5945045E1,2.9695984E1,2.8604584E1,3.603412E1,4.904541E0,1.8243221E1,1.0885071E1,1.8408394E1,2.7733261E1,1.3382507E1,1.680455E1,3.8502857E1,3.637001E1,1.4844669E1,2.5693447E1,3.8637604E1,2.520671E1,1.0429032E1,4.4935272E1,2.2111816E1,0E0,0E0,0E0,0E0,0E0,0E0,0E0,0E0,0E0,0E0,0E0,0E0,0E0,0E0,0E0,0E0,0E0,0E0,0E0,0E0,0E0,0E0,0E0,0E0,0E0,0E0,0E0,0E0,0E0,0E0,0E0,0E0],"parents":[2147483647,0,0,1,1,2,2,3,3,4,4,5,5,6,6,7,7,8,8,9,9,10,10,11,11,12,12,13,13,14,14,15,15,16,16,17,17,18,18,19,19,20,20,21,21,22,22,23,23,24,24,25,25,26,26,27,27,28,28,29,29,30,30],"right_children":[2,4,6,8,10,12,14,16,18,20,22,24,26,28,30,32,34,36,38,40,42,44,46,48,50,52,54,56,58,60,62,-1,-1,-1,-1,-1,-1,-1,-1,-1,-1,-1,-1,-1,-1,-1,-1,-1,-1,-1,-1,-1,-1,-1,-1,-1,-1,-1,-1,-1,-1,-1,-1],"split_conditions":[2.4390244E-1,1.6E-1,3.0769232E-1,1.1111111E-1,2.1052632E-1,2.512E-1,3.154574E-1,1.15384616E-1,5.7967946E-2,1.0450317E-1,1.16117574E-1,5.277778E-1,2.889E-1,3.8E1,3.034E-1,9E0,-4.1666668E-2,-1.1815252E-1,1.2354312E-1,1.0240964E-1,-1.8250135E-1,1.787E-1,-1.9433077E-1,1.1805986E-1,-1.0752688E-2,-1.23931624E-1,7.428712E-2,-5.063058E-2,4.090476E-2,4.835E-1,3.6070716E-1,-1.9224571E-2,-2.3385655E-2,1.7118521E-2,-1.5424283E-2,6.4785645E-4,-1.7724905E-2,-1.0572715E-2,3.1429596E-2,-7.3554143E-3,1.6911784E-2,6.2335655E-3,-1.1248916E-2,-3.1827532E-3,-7.4098897E-3,9.184623E-3,-3.544422E-3,4.529558E-4,-3.9727543E-3,-1.5090325E-2,-4.9147643E-3,-5.574415E-3,2.9919967E-3,2.2028953E-2,5.6774975E-3,1.7434169E-3,6.975864E-3,-1.9964632E-2,1.3661139E-2,1.6741203E-2,4.191858E-3,8.419873E-3,-7.8729866E-4],"split_indices":[14,14,14,14,14,23,14,17,19,17,17,15,23,25,21,25,3,4,17,17,3,22,19,17,2,4,17,3,19,22,15,0,0,0,0,0,0,0,0,0,0,0,0,0,0,0,0,0,0,0,0,0,0,0,0,0,0,0,0,0,0,0,0],"split_type":[0,0,0,0,0,0,0,0,0,0,0,0,0,0,0,0,0,0,0,0,0,0,0,0,0,0,0,0,0,0,0,0,0,0,0,0,0,0,0,0,0,0,0,0,0,0,0,0,0,0,0,0,0,0,0,0,0,0,0,0,0,0,0],"sum_hessian":[8.9881195E4,2.3574656E4,6.630654E4,5.1740986E3,1.8400557E4,4.334989E4,2.2956652E4,2.1080918E3,3.0660068E3,6.7571245E3,1.1643433E4,2.7496846E4,1.5853045E4,8.0066343E3,1.4950018E4,1.9610928E3,1.469991E2,2.2896697E3,7.763374E2,1.8614082E3,4.8957163E3,8.257341E3,3.386092E3,2.6539266E4,9.575807E2,1.3464764E4,2.3882808E3,7.8966543E3,1.0997999E2,2.3775088E3,1.2572509E4,9.32426E2,1.0286667E3,3.5499214E1,1.11499886E2,5.2311245E1,2.2373584E3,7.602584E2,1.6078928E1,1.7837566E3,7.765156E1,7.019987E1,4.8255166E3,1.9877125E3,6.269628E3,4.3532782E2,2.9507642E3,2.3131568E4,3.4076975E3,3.8574442E2,5.718363E2,5.844625E2,1.2880302E4,2.5890796E2,2.1293728E3,1.9635206E3,5.9331333E3,9.336326E1,1.6616734E1,1.7586982E3,6.188106E2,1.2141302E4,4.3120667E2],"tree_param":{"num_deleted":"0","num_feature":"31","num_nodes":"63","size_leaf_vector":"1"}},{"base_weights":[1.237244E-3,-1.9829567E-1,5.225668E-1,-3.715777E-1,-4.573576E-3,3.5726508E-1,8.4885424E-1,-4.9929065E-1,-2.5823987E-1,-9.907975E-2,8.215798E-2,2.85749E-1,4.8746353E-1,7.013037E-1,1.112905E0,-5.870402E-1,-4.224345E-1,-2.6212838E-1,2.3656072E-1,-5.087568E-2,-1.6710196E-1,9.50164E-3,1.1624302E-1,6.1995864E-1,2.7285185E-1,4.483388E-1,7.154204E-1,7.723734E-1,6.3103545E-1,1.3484855E0,1.0489486E0,-2.6424387E-2,-2.2002505E-2,-1.633503E-2,-2.399898E-2,-1.1191726E-2,-7.775725E-3,-1.29740555E-2,4.2214744E-2,2.8590155E-3,-2.867864E-3,-4.1816817E-3,-9.238179E-3,1.354747E-3,-1.1460457E-2,4.14411E-2,4.51184E-3,-1.681831E-3,2.807444E-2,8.333897E-3,1.2424626E-2,1.8196385E-2,-1.6967667E-2,4.0720623E-2,2.4264662E-2,2.8887164E-2,3.7164185E-2,2.9775986E-2,2.1457026E-2,4.7648642E-2,5.59568E-2,4.54371E-2,3.6404856E-2],"categories":[],"categories_nodes":[],"categories_segments":[],"categories_sizes":[],"default_left":[0,0,0,0,0,0,0,0,0,0,0,0,0,0,0,0,0,0,0,0,0,0,0,0,0,0,0,0,0,0,0,0,0,0,0,0,0,0,0,0,0,0,0,0,0,0,0,0,0,0,0,0,0,0,0,0,0,0,0,0,0,0,0],"id":5,"left_children":[1,3,5,7,9,11,13,15,17,19,21,23,25,27,29,31,33,35,37,39,41,43,45,47,49,51,53,55,57,59,61,-1,-1,-1,-1,-1,-1,-1,-1,-1,-1,-1,-1,-1,-1,-1,-1,-1,-1,-1,-1,-1,-1,-1,-1,-1,-1,-1,-1,-1,-1,-1,-1],"loss_changes":[1.1358797E4,2.6508772E3,1.6297949E3,6.031582E2,3.0564142E2,1.8660107E2,3.9498047E2,1.3181885E2,4.2561523E1,5.8482178E1,4.8137817E1,5.5573975E1,6.2988037E1,3.1945068E1,5.3206055E1,2.4399658E1,2.5740723E1,2.6121094E1,7.966455E1,2.6616302E1,2.950142E1,4.4782448E1,4.1725784E1,2.6132538E1,3.0268982E1,3.5012817E1,3.3450623E1,2.463379E1,3.4714966E1,4.2106934E0,3.3398926E1,0E0,0E0,0E0,0E0,0E0,0E0,0E0,0E0,0E0,0E0,0E0,0E0,0E0,0E0,0E0,0E0,0E0,0E0,0E0,0E0,0E0,0E0,0E0,0E0,0E0,0E0,0E0,0E0,0E0,0E0,0E0,0E0],"parents":[2147483647,0,0,1,1,2,2,3,3,4,4,5,5,6,6,7,7,8,8,9,9,10,10,11,11,12,12,13,13,14,14,15,15,16,16,17,17,18,18,19,19,20,20,21,21,22,22,23,23,24,24,25,25,26,26,27,27,28,28,29,29,30,30],"right_children":[2,4,6,8,10,12,14,16,18,20,22,24,26,28,30,32,34,36,38,40,42,44,46,48,50,52,54,56,58,60,62,-1,-1,-1,-1,-1,-1,-1,-1,-1,-1,-1,-1,-1,-1,-1,-1,-1,-1,-1,-1,-1,-1,-1,-1,-1,-1,-1,-1,-1,-1,-1,-1],"split_conditions":[4.4444445E-1,2.857143E-1,6.369427E-1,2E-1,3.4843206E-1,5.464481E-1,7.751938E-1,1.4285715E-1,4.2E1,4.606E-1,1E1,-1.507325E-1,3.4843206E-1,2.275E-1,1E-1,8.3333336E-2,7.443E-1,2.3E1,2.4390244E-1,-1.6374445E-1,1.2E1,5.63E-1,2.0833333E-1,-3.7593983E-2,4.7619048E-1,3.472222E-1,-4.3517645E-2,-5.157895E-3,-2.972399E-2,5.9126075E-2,0E0,-2.6424387E-2,-2.2002505E-2,-1.633503E-2,-2.399898E-2,-1.1191726E-2,-7.775725E-3,-1.29740555E-2,4.2214744E-2,2.8590155E-3,-2.867864E-3,-4.1816817E-3,-9.238179E-3,1.354747E-3,-1.1460457E-2,4.14411E-2,4.51184E-3,-1.681831E-3,2.807444E-2,8.333897E-3,1.2424626E-2,1.8196385E-2,-1.6967667E-2,4.0720623E-2,2.4264662E-2,2.8887164E-2,3.7164185E-2,2.9775986E-2,2.1457026E-2,4.7648642E-2,5.59568E-2,4.54371E-2,3.6404856E-2],"split_indices":[12,12,12,12,12,12,12,12,25,21,25,0,9,21,14,12,21,25,12,18,26,21,14,4,12,9,20,20,3,17,3,0,0,0,0,0,0,0,0,0,0,0,0,0,0,0,0,0,0,0,0,0,0,0,0,0,0,0,0,0,0,0,0],"split_type":[0,0,0,0,0,0,0,0,0,0,0,0,0,0,0,0,0,0,0,0,0,0,0,0,0,0,0,0,0,0,0,0,0,0,0,0,0,0,0,0,0,0,0,0,0,0,0,0,0,0,0,0,0,0,0,0,0,0,0,0,0,0,0],"sum_hessian":[1.0919337E5,7.896923E4,3.022414E4,4.1682926E4,3.72863E4,2.006257E4,1.0161571E4,1.9596564E4,2.2086361E4,1.7843893E4,1.944241E4,1.2952124E4,7.1104463E3,6.521448E3,3.6401228E3,9.146137E3,1.0450427E4,2.191481E4,1.7155107E2,1.0445142E4,7.3987515E3,6.2097656E3,1.3232644E4,4.7921375E2,1.247291E4,6.071745E3,1.0387012E3,3.2365623E3,3.2848857E3,7.726084E2,2.8675144E3,3.052802E3,6.093335E3,9.687196E3,7.63231E2,1.7378135E4,4.536677E3,1.02094505E2,6.9456566E1,1.5179426E3,8.927198E3,3.739326E3,3.6594255E3,5.738602E3,4.7116357E2,4.817931E1,1.3184465E4,5.2679447E1,4.265343E2,4.6091606E3,7.8637495E3,6.0269507E3,4.4794437E1,2.722552E2,7.66446E2,2.4561953E3,7.803669E2,1.4907275E3,1.7941582E3,1.9406396E2,5.7854443E2,1.7581101E3,1.1094043E3],"tree_param":{"num_deleted":"0","num_feature":"31","num_nodes":"63","size_leaf_vector":"1"}},{"base_weights":[5.7854084E-4,-2.4308851E-1,3.579889E-1,-4.400695E-1,-8.899858E-2,2.0808138E-1,6.032393E-1,-6.2558466E-1,-3.5818338E-1,-1.9069877E-1,-1.8739937E-2,1.434798E-1,2.9267225E-1,5.020413E-1,7.477657E-1,-6.97422E-1,-5.5304027E-1,-4.0428075E-1,-3.1977957E-1,2.5038013E-1,-1.9286725E-1,7.2376624E-2,-3.9034855E-2,1.4714538E-1,-3.8656038E-1,2.5403494E-1,3.5872725E-1,4.500778E-1,5.661106E-1,9.194337E-1,6.955591E-1,-2.8290162E-2,-1.2191975E-2,-2.2448318E-2,3.8606273E-3,-1.8056847E-2,-1.4284875E-2,-1.2929284E-2,1.5740436E-2,2.2854852E-2,-3.3111215E-2,-2.6852833E-2,-7.6270932E-3,6.8067955E-3,-7.953322E-4,2.029606E-3,-2.3986367E-3,1.5356724E-2,5.6183357E-3,-2.7027104E-2,2.8275815E-3,1.3467161E-2,8.476809E-3,1.6169768E-2,7.986812E-3,2.1087682E-2,1.6330611E-2,2.3040185E-2,-1.1916921E-2,3.7359815E-2,2.6799083E-2,3.0790595E-2,2.542732E-2],"categories":[],"categories_nodes":[],"categories_segments":[],"categories_sizes":[],"default_left":[0,0,0,0,0,0,0,0,0,0,0,0,0,0,0,0,0,0,0,0,0,0,0,0,0,0,0,0,0,0,0,0,0,0,0,0,0,0,0,0,0,0,0,0,0,0,0,0,0,0,0,0,0,0,0,0,0,0,0,0,0,0,0],"id":6,"left_children":[1,3,5,7,9,11,13,15,17,19,21,23,25,27,29,31,33,35,37,39,41,43,45,47,49,51,53,55,57,59,61,-1,-1,-1,-1,-1,-1,-1,-1,-1,-1,-1,-1,-1,-1,-1,-1,-1,-1,-1,-1,-1,-1,-1,-1,-1,-1,-1,-1,-1,-1,-1,-1],"loss_changes":[1.0680839E4,2.2133857E3,1.8276489E3,4.859038E2,2.9235303E2,1.6854626E2,2.7534326E2,5.0560303E1,3.9114014E1,1.6032654E1,4.4753777E1,3.403183E1,3.394568E1,3.6585938E1,6.878906E1,1.8673584E1,2.5998413E1,2.2184937E1,2.9970703E1,2.8824984E1,1.7217468E1,3.9790237E1,3.7200115E1,2.741101E1,1.6008413E1,2.9228516E1,3.5531616E1,1.946521E1,4.264026E1,5.7784424E0,2.5845215E1,0E0,0E0,0E0,0E0,0E0,0E0,0E0,0E0,0E0,0E0,0E0,0E0,0E0,0E0,0E0,0E0,0E0,0E0,0E0,0E0,0E0,0E0,0E0,0E0,0E0,0E0,0E0,0E0,0E0,0E0,0E0,0E0],"parents":[2147483647,0,0,1,1,2,2,3,3,4,4,5,5,6,6,7,7,8,8,9,9,10,10,11,11,12,12,13,13,14,14,15,15,16,16,17,17,18,18,19,19,20,20,21,21,22,22,23,23,24,24,25,25,26,26,27,27,28,28,29,29,30,30],"right_children":[2,4,6,8,10,12,14,16,18,20,22,24,26,28,30,32,34,36,38,40,42,44,46,48,50,52,54,56,58,60,62,-1,-1,-1,-1,-1,-1,-1,-1,-1,-1,-1,-1,-1,-1,-1,-1,-1,-1,-1,-1,-1,-1,-1,-1,-1,-1,-1,-1,-1,-1,-1,-1],"split_conditions":[2.2804055E-1,3.5714287E-1,6.756757E-1,2.0833333E-1,4.2553192E-1,6.0240966E-1,6.639676E-1,1.5384616E-1,-2.4786325E-1,-1.6369048E-1,-8.403362E-3,6.349207E-2,4.4306844E-1,5.714286E-1,1.1111111E-1,4.2625748E-2,7.608695E-2,-7.1483557E-3,7.214E-1,5.555556E-1,-4.91287E-2,-4.5548655E-2,6E0,-1.10626884E-1,1.5625E-1,-4.0217645E-2,7.14E-2,-4.040404E-2,7E0,1E0,1.18E-1,-2.8290162E-2,-1.2191975E-2,-2.2448318E-2,3.8606273E-3,-1.8056847E-2,-1.4284875E-2,-1.2929284E-2,1.5740436E-2,2.2854852E-2,-3.3111215E-2,-2.6852833E-2,-7.6270932E-3,6.8067955E-3,-7.953322E-4,2.029606E-3,-2.3986367E-3,1.5356724E-2,5.6183357E-3,-2.7027104E-2,2.8275815E-3,1.3467161E-2,8.476809E-3,1.6169768E-2,7.986812E-3,2.1087682E-2,1.6330611E-2,2.3040185E-2,-1.1916921E-2,3.7359815E-2,2.6799083E-2,3.0790595E-2,2.542732E-2],"split_indices":[15,10,10,10,10,10,15,10,15,15,2,2,15,15,14,0,2,5,22,12,5,4,25,0,11,20,19,4,24,30,22,0,0,0,0,0,0,0,0,0,0,0,0,0,0,0,0,0,0,0,0,0,0,0,0,0,0,0,0,0,0,0,0],"split_type":[0,0,0,0,0,0,0,0,0,0,0,0,0,0,0,0,0,0,0,0,0,0,0,0,0,0,0,0,0,0,0,0,0,0,0,0,0,0,0,0,0,0,0,0,0,0,0,0,0,0,0,0,0,0,0,0,0,0,0,0,0,0,0],"sum_hessian":[1.22640484E5,7.292404E4,4.9716445E4,3.2006283E4,4.0917758E4,3.0857363E4,1.8859082E4,9.798854E3,2.2207428E4,1.6716824E4,2.4200932E4,1.7498066E4,1.3359296E4,1.1095285E4,7.7637964E3,4.9183994E3,4.880454E3,1.0087246E4,1.2120183E4,8.0997375E1,1.6635828E4,4.4071206E3,1.979381E4,1.7378793E4,1.1927452E2,8.432983E3,4.9263125E3,6.131727E3,4.9635586E3,1.8061659E3,5.9576304E3,4.7972114E3,1.2118793E2,4.820135E3,6.0319695E1,5.0392617E3,5.047985E3,1.2062483E4,5.769899E1,6.2848766E1,1.8148605E1,7.419643E1,1.656163E4,2.1395205E3,2.2676E3,3.7412197E3,1.6052592E4,4.7537402E2,1.6903418E4,7.2912964E1,4.6361557E1,2.843553E3,5.5894307E3,3.8285383E3,1.097774E3,2.1508828E3,3.9808442E3,4.907808E3,5.5750042E1,1.7035769E3,1.0258897E2,2.6544204E3,3.30321E3],"tree_param":{"num_deleted":"0","num_feature":"31","num_nodes":"63","size_leaf_vector":"1"}},{"base_weights":[-7.641678E-4,-1.7402384E-1,8.1455424E-2,-3.1035474E-1,-9.106109E-2,1.263535E-2,1.6704555E-1,-4.0866023E-1,-2.2893521E-1,-2.1596174E-1,-5.7088144E-2,4.4486914E-3,2.306353E-1,1.1124962E-1,2.0488092E-1,-4.53201E-1,-2.763868E-1,5.722378E-1,-2.3781653E-1,-1.6335616E-1,-3.2416785E-1,-7.3601805E-2,1.5445839E-1,-8.4457636E-2,2.1338683E-2,5.069617E-1,1.3567536E-1,3.1320516E-2,2.2288989E-1,1.8739493E-1,3.7434042E-1,3.2465276E-3,-1.849981E-2,2.2739207E-2,-1.1625692E-2,4.2621356E-2,-2.2658156E-3,-2.1569354E-2,-8.699962E-3,2.7027212E-2,-7.2365203E-3,-1.3420072E-2,2.2534277E-2,-3.1408032E-3,1.9907184E-2,1.3748654E-2,-9.908017E-4,-6.3279294E-3,2.0754627E-5,2.769201E-4,3.717424E-3,3.137771E-2,4.4529345E-3,-2.4542897E-3,1.0136853E-2,4.7480777E-2,1.0406376E-3,4.1451156E-3,1.1697863E-2,6.4788437E-3,1.3031074E-2,-3.924884E-3,1.7519759E-2],"categories":[],"categories_nodes":[],"categories_segments":[],"categories_sizes":[],"default_left":[0,0,0,0,0,0,0,0,0,0,0,0,0,0,0,0,0,0,0,0,0,0,0,0,0,0,0,0,0,0,0,0,0,0,0,0,0,0,0,0,0,0,0,0,0,0,0,0,0,0,0,0,0,0,0,0,0,0,0,0,0,0,0],"id":7,"left_children":[1,3,5,7,9,11,13,15,17,19,21,23,25,27,29,31,33,35,37,39,41,43,45,47,49,51,53,55,57,59,61,-1,-1,-1,-1,-1,-1,-1,-1,-1,-1,-1,-1,-1,-1,-1,-1,-1,-1,-1,-1,-1,-1,-1,-1,-1,-1,-1,-1,-1,-1,-1,-1],"loss_changes":[1.2782443E3,3.2655017E2,3.584194E2,8.727905E1,7.614632E1,6.0177345E1,5.7199463E1,2.894757E1,4.2639374E1,2.1747223E1,4.9320713E1,4.8817776E1,3.189167E1,9.778955E1,4.7756714E1,1.8445435E1,1.5184303E1,2.0547009E1,3.60206E1,3.8157578E1,1.2780319E1,3.679373E1,3.4710648E1,3.253642E1,2.8191072E1,3.4021156E1,2.1145376E1,3.9023365E1,3.7867294E1,5.144171E1,4.5486633E1,0E0,0E0,0E0,0E0,0E0,0E0,0E0,0E0,0E0,0E0,0E0,0E0,0E0,0E0,0E0,0E0,0E0,0E0,0E0,0E0,0E0,0E0,0E0,0E0,0E0,0E0,0E0,0E0,0E0,0E0,0E0,0E0],"parents":[2147483647,0,0,1,1,2,2,3,3,4,4,5,5,6,6,7,7,8,8,9,9,10,10,11,11,12,12,13,13,14,14,15,15,16,16,17,17,18,18,19,19,20,20,21,21,22,22,23,23,24,24,25,25,26,26,27,27,28,28,29,29,30,30],"right_children":[2,4,6,8,10,12,14,16,18,20,22,24,26,28,30,32,34,36,38,40,42,44,46,48,50,52,54,56,58,60,62,-1,-1,-1,-1,-1,-1,-1,-1,-1,-1,-1,-1,-1,-1,-1,-1,-1,-1,-1,-1,-1,-1,-1,-1,-1,-1,-1,-1,-1,-1,-1,-1],"split_conditions":[2.5641027E-1,2.1052632E-1,2.633E-1,1.683E-1,-2.1367522E-2,2.6785715E-2,-6.666667E-3,1.0080645E-2,-2.033097E-1,1.3781819E-2,1.3335384E-1,-2.4242423E-2,3.565E-1,2.882E-1,3.245E-1,-1.5E1,-1.8930523E-1,3.0769232E-1,1.1111111E-1,-3.2794055E-1,1.5E1,5.025312E-2,9E0,2.9411766E-1,3.0769232E-1,4.651163E-1,8.3333336E-2,2.631579E-1,-4.0854808E-2,4.739E-1,-1.4114809E-1,3.2465276E-3,-1.849981E-2,2.2739207E-2,-1.1625692E-2,4.2621356E-2,-2.2658156E-3,-2.1569354E-2,-8.699962E-3,2.7027212E-2,-7.2365203E-3,-1.3420072E-2,2.2534277E-2,-3.1408032E-3,1.9907184E-2,1.3748654E-2,-9.908017E-4,-6.3279294E-3,2.0754627E-5,2.769201E-4,3.717424E-3,3.137771E-2,4.4529345E-3,-2.4542897E-3,1.0136853E-2,4.7480777E-2,1.0406376E-3,4.1451156E-3,1.1697863E-2,6.4788437E-3,1.3031074E-2,-3.924884E-3,1.7519759E-2],"split_indices":[13,13,23,23,5,2,5,2,0,20,18,2,21,23,23,24,4,12,13,18,24,20,25,13,13,12,6,13,3,21,18,0,0,0,0,0,0,0,0,0,0,0,0,0,0,0,0,0,0,0,0,0,0,0,0,0,0,0,0,0,0,0,0],"split_type":[0,0,0,0,0,0,0,0,0,0,0,0,0,0,0,0,0,0,0,0,0,0,0,0,0,0,0,0,0,0,0,0,0,0,0,0,0,0,0,0,0,0,0,0,0,0,0,0,0,0,0,0,0,0,0,0,0,0,0,0,0,0,0],"sum_hessian":[8.9728055E4,2.8876756E4,6.08513E4,1.09231045E4,1.7953652E4,3.373138E4,2.7119922E4,4.946038E3,5.977066E3,3.8373682E3,1.4116283E4,3.251192E4,1.2194569E3,1.0961521E4,1.61584E4,3.697715E3,1.2483231E3,6.4712715E1,5.912353E3,2.5843782E3,1.25299E3,1.3095178E4,1.0211058E3,5.1888237E3,2.7323098E4,3.1050848E2,9.089485E2,6.3892793E3,4.5722427E3,1.4649464E4,1.5089366E3,6.28993E1,3.634816E3,1.9952055E1,1.2283711E3,3.5965813E1,2.8746904E1,3.7143985E2,5.5409136E3,5.2084747E1,2.5322935E3,1.2379161E3,1.5073908E1,1.298443E4,1.1074788E2,4.964816E2,5.246242E2,2.7782444E3,2.4105796E3,2.2745832E4,4.577265E3,1.8178091E2,1.2872758E2,3.3986246E2,5.69086E2,2.8088373E1,6.361191E3,1.6857614E3,2.8864812E3,1.2378205E4,2.2712585E3,1.7890662E2,1.33003E3],"tree_param":{"num_deleted":"0","num_feature":"31","num_nodes":"63","size_leaf_vector":"1"}},{"base_weights":[4.449831E-4,-1.9456112E-1,5.0010186E-1,-3.7749293E-1,-2.076365E-2,9.267533E-1,3.8129333E-1,-2.7387452E-1,-5.0557643E-1,7.857494E-2,-1.1817828E-1,1.1170312E0,7.967152E-1,2.7480158E-1,5.08417E-1,-2.3835252E-1,-3.360563E-1,-4.4315377E-1,-5.9469825E-1,5.428485E-3,1.1044936E-1,-1.5728496E-1,-5.3991728E-2,1.1309698E0,3.0549952E-1,7.4056387E-1,9.3991977E-1,2.1977109E-1,3.379602E-1,6.2131983E-1,4.564433E-1,-1.0615152E-2,-6.0726255E-3,1.6789277E-3,-1.3776402E-2,-1.7214542E-2,-2.3090051E-2,-1.8151559E-2,-2.4776224E-2,-4.511709E-4,1.9679772E-2,6.1479784E-3,2.3551553E-3,-4.5828554E-3,-8.884298E-3,-4.948641E-3,6.542175E-4,5.1520932E-2,4.3460377E-2,-1.3562403E-2,4.066933E-2,2.4173733E-2,3.3095445E-2,3.5615325E-2,4.637919E-2,9.868508E-3,1.7151644E-3,1.5572464E-2,9.046472E-3,2.2178015E-2,3.3452008E-2,2.935126E-2,1.7187871E-2],"categories":[],"categories_nodes":[],"categories_segments":[],"categories_sizes":[],"default_left":[0,0,0,0,0,0,0,0,0,0,0,0,0,0,0,0,0,0,0,0,0,0,0,0,0,0,0,0,0,0,0,0,0,0,0,0,0,0,0,0,0,0,0,0,0,0,0,0,0,0,0,0,0,0,0,0,0,0,0,0,0,0,0],"id":8,"left_children":[1,3,5,7,9,11,13,15,17,19,21,23,25,27,29,31,33,35,37,39,41,43,45,47,49,51,53,55,57,59,61,-1,-1,-1,-1,-1,-1,-1,-1,-1,-1,-1,-1,-1,-1,-1,-1,-1,-1,-1,-1,-1,-1,-1,-1,-1,-1,-1,-1,-1,-1,-1,-1],"loss_changes":[1.0652835E4,2.5001453E3,1.5552695E3,5.0826123E2,3.9026767E2,1.643081E2,3.2479907E2,4.6648804E1,9.494141E1,4.6540596E1,5.1081573E1,3.0173828E1,3.1094482E1,4.5286377E1,6.3818848E1,3.1456604E1,2.4353027E1,1.6938965E1,2.416748E1,4.9334682E1,3.0985611E1,3.497043E1,3.7837105E1,1.6968506E1,2.207993E1,3.3184204E1,1.0892151E1,3.325656E1,3.4764038E1,4.893567E1,5.518335E1,0E0,0E0,0E0,0E0,0E0,0E0,0E0,0E0,0E0,0E0,0E0,0E0,0E0,0E0,0E0,0E0,0E0,0E0,0E0,0E0,0E0,0E0,0E0,0E0,0E0,0E0,0E0,0E0,0E0,0E0,0E0,0E0],"parents":[2147483647,0,0,1,1,2,2,3,3,4,4,5,5,6,6,7,7,8,8,9,9,10,10,11,11,12,12,13,13,14,14,15,15,16,16,17,17,18,18,19,19,20,20,21,21,22,22,23,23,24,24,25,25,26,26,27,27,28,28,29,29,30,30],"right_children":[2,4,6,8,10,12,14,16,18,20,22,24,26,28,30,32,34,36,38,40,42,44,46,48,50,52,54,56,58,60,62,-1,-1,-1,-1,-1,-1,-1,-1,-1,-1,-1,-1,-1,-1,-1,-1,-1,-1,-1,-1,-1,-1,-1,-1,-1,-1,-1,-1,-1,-1,-1,-1],"split_conditions":[4.4444445E-1,2.7027026E-1,-5.126263E-1,4.830965E-1,1.0797342E-1,1.1111111E-1,5.464481E-1,3.9553428E-1,6.5625E-1,1E1,3.2258064E-1,1.15384616E-1,7.751938E-1,1.16959065E-2,2.275E-1,2.3E1,1.6666667E-1,1.19070806E-1,-3.5719786E-2,6.666667E-2,3.125E-1,4.789E-1,-9.803922E-3,4.347826E-2,4.347826E-2,1.6666667E-1,4.7142107E-2,1.1728395E-1,-1.3136289E-1,-2.2917647E-2,1.952E-1,-1.0615152E-2,-6.0726255E-3,1.6789277E-3,-1.3776402E-2,-1.7214542E-2,-2.3090051E-2,-1.8151559E-2,-2.4776224E-2,-4.511709E-4,1.9679772E-2,6.1479784E-3,2.3551553E-3,-4.5828554E-3,-8.884298E-3,-4.948641E-3,6.542175E-4,5.1520932E-2,4.3460377E-2,-1.3562403E-2,4.066933E-2,2.4173733E-2,3.3095445E-2,3.5615325E-2,4.637919E-2,9.868508E-3,1.7151644E-3,1.5572464E-2,9.046472E-3,2.2178015E-2,3.3452008E-2,2.935126E-2,1.7187871E-2],"split_indices":[12,12,15,15,15,10,12,15,15,25,12,7,12,1,21,25,12,17,3,8,13,21,4,10,9,9,20,17,15,20,23,0,0,0,0,0,0,0,0,0,0,0,0,0,0,0,0,0,0,0,0,0,0,0,0,0,0,0,0,0,0,0,0],"split_type":[0,0,0,0,0,0,0,0,0,0,0,0,0,0,0,0,0,0,0,0,0,0,0,0,0,0,0,0,0,0,0,0,0,0,0,0,0,0,0,0,0,0,0,0,0,0,0,0,0,0,0,0,0,0,0,0,0,0,0,0,0,0,0],"sum_hessian":[1.0932913E5,7.863851E4,3.0690627E4,3.83116E4,4.0326906E4,6.6831694E3,2.4007459E4,2.1180602E4,1.7130998E4,1.9965871E4,2.0361035E4,2.7097598E3,3.9734094E3,1.3065997E4,1.0941462E4,1.348411E4,7.696492E3,1.007874E4,7.0522583E3,6.06106E3,1.3904811E4,1.2650504E4,7.7105317E3,2.6634956E3,4.6264156E1,2.859179E3,1.1142305E3,6.985527E3,6.0804697E3,3.4449946E3,7.4964673E3,1.02726455E4,3.2114639E3,1.6605559E2,7.530437E3,9.205661E3,8.730794E2,1.0555789E3,5.9966797E3,5.86059E3,2.0047037E2,7.5603374E3,6.344473E3,7.628292E3,5.0222114E3,3.8727422E3,3.8377893E3,5.809839E2,2.0825117E3,2.44704E1,2.1793756E1,1.1165193E3,1.7426597E3,9.136141E2,2.006164E2,6.061385E3,9.2414185E2,4.164328E3,1.9161417E3,2.6307476E3,8.142469E2,6.5671564E2,6.839752E3],"tree_param":{"num_deleted":"0","num_feature":"31","num_nodes":"63","size_leaf_vector":"1"}},{"base_weights":[-2.09852E-4,-2.4700488E-1,3.3146277E-1,-4.2864227E-1,-9.661535E-2,1.8945052E-1,5.823077E-1,-6.1093867E-1,-3.4891233E-1,-1.8931496E-1,-2.5496852E-2,1.2716705E-1,2.819574E-1,4.904434E-1,7.276496E-1,-6.8468916E-1,-5.3706336E-1,-3.9056212E-1,-3.0902997E-1,-1.6321707E-1,-2.3350255E-1,-6.948148E-2,2.19849E-2,1.0077633E-1,1.7897575E-1,2.5023216E-1,3.5894066E-1,5.5001473E-1,4.3802556E-1,8.94071E-1,6.7219585E-1,-2.9012991E-2,-2.4221655E-2,-2.1802077E-2,2.2592084E-3,-2.141378E-2,-1.4855577E-2,-1.25457E-2,1.7064316E-2,-6.7165284E-3,1.0372461E-2,-1.8380832E-2,-8.584577E-3,5.3368456E-4,-4.2341477E-3,7.1319944E-4,3.5610117E-2,4.144739E-3,-3.131807E-2,7.3268646E-3,-2.5181774E-2,-1.49209155E-2,1.0381992E-2,1.4702632E-2,-3.033937E-2,2.4726702E-2,1.9870076E-2,1.5225994E-2,1.9901063E-2,1.9411843E-2,3.612902E-2,2.9316412E-2,2.4268253E-2],"categories":[],"categories_nodes":[],"categories_segments":[],"categories_sizes":[],"default_left":[0,0,0,0,0,0,0,0,0,0,0,0,0,0,0,0,0,0,0,0,0,0,0,0,0,0,0,0,0,0,0,0,0,0,0,0,0,0,0,0,0,0,0,0,0,0,0,0,0,0,0,0,0,0,0,0,0,0,0,0,0,0,0],"id":9,"left_children":[1,3,5,7,9,11,13,15,17,19,21,23,25,27,29,31,33,35,37,39,41,43,45,47,49,51,53,55,57,59,61,-1,-1,-1,-1,-1,-1,-1,-1,-1,-1,-1,-1,-1,-1,-1,-1,-1,-1,-1,-1,-1,-1,-1,-1,-1,-1,-1,-1,-1,-1,-1,-1],"loss_changes":[1.005243E4,1.9233511E3,1.8662461E3,4.632373E2,2.539349E2,1.926853E2,2.5238818E2,5.237378E1,3.6670654E1,1.920697E1,4.5535027E1,2.729483E1,3.2723633E1,3.5906982E1,6.690845E1,1.5030029E1,2.3088501E1,2.9828735E1,3.8608276E1,2.090503E1,2.6326202E1,3.4106266E1,3.77114E1,3.3297577E1,2.2955856E1,5.5465515E1,3.8068848E1,1.9286621E1,2.082251E1,6.267334E0,2.1306396E1,0E0,0E0,0E0,0E0,0E0,0E0,0E0,0E0,0E0,0E0,0E0,0E0,0E0,0E0,0E0,0E0,0E0,0E0,0E0,0E0,0E0,0E0,0E0,0E0,0E0,0E0,0E0,0E0,0E0,0E0,0E0,0E0],"parents":[2147483647,0,0,1,1,2,2,3,3,4,4,5,5,6,6,7,7,8,8,9,9,10,10,11,11,12,12,13,13,14,14,15,15,16,16,17,17,18,18,19,19,20,20,21,21,22,22,23,23,24,24,25,25,26,26,27,27,28,28,29,29,30,30],"right_children":[2,4,6,8,10,12,14,16,18,20,22,24,26,28,30,32,34,36,38,40,42,44,46,48,50,52,54,56,58,60,62,-1,-1,-1,-1,-1,-1,-1,-1,-1,-1,-1,-1,-1,-1,-1,-1,-1,-1,-1,-1,-1,-1,-1,-1,-1,-1,-1,-1,-1,-1,-1,-1],"split_conditions":[5.1282054E-1,3.5714287E-1,6.756757E-1,2.0833333E-1,4.2553192E-1,6.0240966E-1,8E-1,1.5384616E-1,2.9411766E-1,1.128311E-1,4.356E-1,5.714286E-1,6.008E-1,1.638E-1,1.1111111E-1,0E0,7.608695E-2,-1.6666667E-1,7.214E-1,1.12820126E-1,7E0,-6.7476383E-3,3.547E-1,3.2573685E-2,6.349207E-2,-6.17009E-2,9.42973E-3,2.173913E-1,6.279091E-2,-2.6182609E-2,1.297E-1,-2.9012991E-2,-2.4221655E-2,-2.1802077E-2,2.2592084E-3,-2.141378E-2,-1.4855577E-2,-1.25457E-2,1.7064316E-2,-6.7165284E-3,1.0372461E-2,-1.8380832E-2,-8.584577E-3,5.3368456E-4,-4.2341477E-3,7.1319944E-4,3.5610117E-2,4.144739E-3,-3.131807E-2,7.3268646E-3,-2.5181774E-2,-1.49209155E-2,1.0381992E-2,1.4702632E-2,-3.033937E-2,2.4726702E-2,1.9870076E-2,1.5225994E-2,1.9901063E-2,1.9411843E-2,3.612902E-2,2.9316412E-2,2.4268253E-2],"split_indices":[10,10,10,10,10,10,10,10,10,17,21,10,21,22,14,3,2,6,22,17,27,5,22,20,2,19,20,14,19,19,22,0,0,0,0,0,0,0,0,0,0,0,0,0,0,0,0,0,0,0,0,0,0,0,0,0,0,0,0,0,0,0,0],"split_type":[0,0,0,0,0,0,0,0,0,0,0,0,0,0,0,0,0,0,0,0,0,0,0,0,0,0,0,0,0,0,0,0,0,0,0,0,0,0,0,0,0,0,0,0,0,0,0,0,0,0,0,0,0,0,0,0,0,0,0,0,0,0,0],"sum_hessian":[1.2280564E5,7.041267E4,5.239297E4,3.1891844E4,3.852083E4,3.3455035E4,1.8937932E4,9.70171E3,2.2190133E4,1.6721748E4,2.179908E4,1.9995693E4,1.3459342E4,1.1606828E4,7.3311045E3,4.8501426E3,4.8515674E3,1.0849024E4,1.1341109E4,1.0517124E4,6.204624E3,1.1317125E4,1.0481954E4,1.3250782E4,6.7449116E3,9.535327E3,3.9240146E3,5.4273755E3,6.1794526E3,1.8280513E3,5.503053E3,3.1985364E3,1.6516061E3,4.7873833E3,6.418392E1,1.2649132E3,9.584111E3,1.1271146E4,6.996202E1,1.0402348E4,1.147763E2,4.7631735E2,5.7283066E3,3.4527388E3,7.8643867E3,1.0433164E4,4.879E1,1.3209296E4,4.1486443E1,6.7109814E3,3.3930023E1,1.3972032E2,9.395607E3,3.894713E3,2.9301853E1,2.3754136E3,3.051962E3,3.1505332E3,3.0289192E3,4.146476E1,1.7865865E3,2.849552E3,2.653501E3],"tree_param":{"num_deleted":"0","num_feature":"31","num_nodes":"63","size_leaf_vector":"1"}},{"base_weights":[7.454699E-4,-2.1790168E-1,7.72762E-2,-4.261285E-1,-1.6005945E-1,2.238704E-2,1.7959589E-1,-4.965222E-1,-3.779303E-1,-2.2806239E-1,-1.21048205E-1,-1.3769966E-2,8.450752E-2,1.2037206E-1,2.1003328E-1,-1.8738176E-1,-5.04982E-1,-2.0533898E-1,-4.1398984E-1,-1.5830187E-1,-2.6624507E-1,-4.8707083E-2,-1.542505E-1,-5.4448927E-3,-1.8643251E-1,8.82538E-2,-4.2353195E-1,1.5459248E-1,-1.0011139E-2,1.9887346E-1,3.6739808E-1,3.3593945E-2,-2.3993725E-2,-4.997996E-3,-2.0482259E-2,-1.7561615E-2,-3.172545E-3,-1.7294432E-3,-1.6902305E-2,-9.057812E-3,6.2495914E-5,5.5886796E-3,-1.10639725E-2,-2.476036E-3,3.1316694E-2,-1.6547937E-2,-5.6295083E-3,2.9419834E-4,-3.6520588E-3,1.5034358E-2,-8.8709975E-3,-2.068687E-3,3.99532E-3,-2.2506969E-2,-6.6871312E-3,4.590917E-3,9.604705E-3,-1.0072504E-3,4.80503E-2,7.020493E-3,1.2186199E-2,2.9600827E-2,9.498196E-3],"categories":[],"categories_nodes":[],"categories_segments":[],"categories_sizes":[],"default_left":[0,0,0,0,0,0,0,0,0,0,0,0,0,0,0,0,0,0,0,0,0,0,0,0,0,0,0,0,0,0,0,0,0,0,0,0,0,0,0,0,0,0,0,0,0,0,0,0,0,0,0,0,0,0,0,0,0,0,0,0,0,0,0],"id":10,"left_children":[1,3,5,7,9,11,13,15,17,19,21,23,25,27,29,31,33,35,37,39,41,43,45,47,49,51,53,55,57,59,61,-1,-1,-1,-1,-1,-1,-1,-1,-1,-1,-1,-1,-1,-1,-1,-1,-1,-1,-1,-1,-1,-1,-1,-1,-1,-1,-1,-1,-1,-1,-1,-1],"loss_changes":[1.5022343E3,2.8021606E2,3.7345813E2,1.688977E1,4.8267212E1,9.722735E1,4.1794373E1,5.2029114E0,1.8573639E1,1.759964E1,2.7785461E1,3.9306614E1,3.031427E1,3.519792E1,2.6798523E1,2.4446354E1,5.240082E0,1.5296749E1,7.8342285E0,2.5643147E1,1.807785E1,3.9972748E1,2.770723E1,2.8694193E1,2.506557E1,2.574469E1,3.990326E0,2.1210083E1,3.0041035E1,3.5287964E1,4.8805893E1,0E0,0E0,0E0,0E0,0E0,0E0,0E0,0E0,0E0,0E0,0E0,0E0,0E0,0E0,0E0,0E0,0E0,0E0,0E0,0E0,0E0,0E0,0E0,0E0,0E0,0E0,0E0,0E0,0E0,0E0,0E0,0E0],"parents":[2147483647,0,0,1,1,2,2,3,3,4,4,5,5,6,6,7,7,8,8,9,9,10,10,11,11,12,12,13,13,14,14,15,15,16,16,17,17,18,18,19,19,20,20,21,21,22,22,23,23,24,24,25,25,26,26,27,27,28,28,29,29,30,30],"right_children":[2,4,6,8,10,12,14,16,18,20,22,24,26,28,30,32,34,36,38,40,42,44,46,48,50,52,54,56,58,60,62,-1,-1,-1,-1,-1,-1,-1,-1,-1,-1,-1,-1,-1,-1,-1,-1,-1,-1,-1,-1,-1,-1,-1,-1,-1,-1,-1,-1,-1,-1,-1,-1],"split_conditions":[2.4390244E-1,1.6E-1,3.0769232E-1,1.1111111E-1,2.1052632E-1,2.512E-1,2.734E-1,-3.621765E-2,-2.2605763E-1,-1.170938E-1,-7.823119E-2,6.756757E-1,1E2,-5.0357144E-2,3.354E-1,3E0,-1.5E1,-4.2424243E-2,-1.1815252E-1,-1.5834267E-1,-3.888889E-1,7.246377E-1,-1.0721248E-1,1E0,8E0,-1.03896104E-1,2.9411766E-1,5.5072416E-2,1.4379086E-1,4.347826E-1,-2.3530303E-2,3.3593945E-2,-2.3993725E-2,-4.997996E-3,-2.0482259E-2,-1.7561615E-2,-3.172545E-3,-1.7294432E-3,-1.6902305E-2,-9.057812E-3,6.2495914E-5,5.5886796E-3,-1.10639725E-2,-2.476036E-3,3.1316694E-2,-1.6547937E-2,-5.6295083E-3,2.9419834E-4,-3.6520588E-3,1.5034358E-2,-8.8709975E-3,-2.068687E-3,3.99532E-3,-2.2506969E-2,-6.6871312E-3,4.590917E-3,9.604705E-3,-1.0072504E-3,4.80503E-2,7.020493E-3,1.2186199E-2,2.9600827E-2,9.498196E-3],"split_indices":[14,14,14,14,14,23,23,20,18,18,19,10,27,20,23,26,24,4,4,18,7,10,3,29,27,3,14,18,0,11,20,0,0,0,0,0,0,0,0,0,0,0,0,0,0,0,0,0,0,0,0,0,0,0,0,0,0,0,0,0,0,0,0],"split_type":[0,0,0,0,0,0,0,0,0,0,0,0,0,0,0,0,0,0,0,0,0,0,0,0,0,0,0,0,0,0,0,0,0,0,0,0,0,0,0,0,0,0,0,0,0,0,0,0,0,0,0,0,0,0,0,0,0,0,0,0,0,0,0],"sum_hessian":[8.9774375E4,2.3274973E4,6.649941E4,5.058115E3,1.8216857E4,4.32827E4,2.3216705E4,2.0510986E3,3.0070166E3,6.638122E3,1.1578735E4,2.7358152E4,1.5924547E4,7.8841963E3,1.5332509E4,5.556592E1,1.9955328E3,5.213159E2,2.4857007E3,2.3508452E3,4.287277E3,3.6442112E3,7.9345244E3,2.6101268E4,1.2568843E3,1.5808995E4,1.1555232E2,6.2455645E3,1.6386322E3,1.4319886E4,1.0126227E3,1.5552918E1,4.0013E1,3.7068295E1,1.9584645E3,1.814878E2,3.398281E2,5.654493E1,2.4291558E3,1.6484071E3,7.02438E2,1.0607846E2,4.181198E3,3.588328E3,5.5883457E1,3.9096265E2,7.5435615E3,2.2714627E4,3.3866406E3,7.35916E1,1.1832926E3,1.2117787E3,1.4597217E4,7.387165E1,4.168067E1,4.2638667E3,1.9816978E3,1.6194121E3,1.9220009E1,1.1732457E4,2.5874285E3,2.6041034E2,7.5221234E2],"tree_param":{"num_deleted":"0","num_feature":"31","num_nodes":"63","size_leaf_vector":"1"}},{"base_weights":[-1.5794459E-3,-1.906737E-1,4.7562307E-1,-3.7773907E-1,-2.717425E-2,8.798418E-1,3.6277357E-1,-2.8301033E-1,-5.099642E-1,7.366333E-2,-1.1984942E-1,7.1306014E-1,1.0113333E0,2.5657365E-1,4.9013224E-1,-2.370811E-1,-3.4268048E-1,-5.887589E-1,-4.4572186E-1,-3.6050905E-2,9.768609E-2,-2.5252596E-1,-9.495716E-2,5.907129E-1,7.964345E-1,9.1111386E-1,1.1266668E0,5.8839273E-1,2.4331568E-1,5.949184E-1,4.4148204E-1,-1.0611105E-2,-5.9257853E-3,-1.4951753E-2,-1.10605825E-2,-2.5770536E-2,-2.1816088E-2,-2.1810472E-2,-1.7036796E-2,-2.1295457E-3,3.0139735E-2,4.3412885E-3,-3.6815337E-3,2.2411859E-2,-1.0392244E-2,3.355968E-2,-3.9246837E-3,2.6606219E-2,3.5133525E-3,4.8375525E-2,3.0765878E-2,-7.209295E-3,3.7017446E-2,4.8636775E-2,4.062397E-2,-2.477091E-3,2.6745994E-2,1.1770112E-2,8.057232E-3,2.8850092E-2,2.0360395E-2,2.8275294E-2,1.6646158E-2],"categories":[],"categories_nodes":[],"categories_segments":[],"categories_sizes":[],"default_left":[0,0,0,0,0,0,0,0,0,0,0,0,0,0,0,0,0,0,0,0,0,0,0,0,0,0,0,0,0,0,0,0,0,0,0,0,0,0,0,0,0,0,0,0,0,0,0,0,0,0,0,0,0,0,0,0,0,0,0,0,0,0,0],"id":11,"left_children":[1,3,5,7,9,11,13,15,17,19,21,23,25,27,29,31,33,35,37,39,41,43,45,47,49,51,53,55,57,59,61,-1,-1,-1,-1,-1,-1,-1,-1,-1,-1,-1,-1,-1,-1,-1,-1,-1,-1,-1,-1,-1,-1,-1,-1,-1,-1,-1,-1,-1,-1,-1,-1],"loss_changes":[9.824424E3,2.384864E3,1.4090137E3,4.552915E2,3.8886896E2,1.469751E2,3.2653125E2,5.793506E1,7.64624E1,5.2532074E1,7.155426E1,2.9749756E1,4.231665E1,5.773419E1,5.5621826E1,2.9956726E1,1.8798584E1,1.5924805E1,1.6160034E1,4.8546238E1,3.3654648E1,2.0378662E1,5.3898804E1,4.518332E1,1.8779297E1,3.1838867E1,1.5859619E1,2.6469711E1,2.6924438E1,3.7265137E1,5.0041748E1,0E0,0E0,0E0,0E0,0E0,0E0,0E0,0E0,0E0,0E0,0E0,0E0,0E0,0E0,0E0,0E0,0E0,0E0,0E0,0E0,0E0,0E0,0E0,0E0,0E0,0E0,0E0,0E0,0E0,0E0,0E0,0E0],"parents":[2147483647,0,0,1,1,2,2,3,3,4,4,5,5,6,6,7,7,8,8,9,9,10,10,11,11,12,12,13,13,14,14,15,15,16,16,17,17,18,18,19,19,20,20,21,21,22,22,23,23,24,24,25,25,26,26,27,27,28,28,29,29,30,30],"right_children":[2,4,6,8,10,12,14,16,18,20,22,24,26,28,30,32,34,36,38,40,42,44,46,48,50,52,54,56,58,60,62,-1,-1,-1,-1,-1,-1,-1,-1,-1,-1,-1,-1,-1,-1,-1,-1,-1,-1,-1,-1,-1,-1,-1,-1,-1,-1,-1,-1,-1,-1,-1,-1],"split_conditions":[4.4444445E-1,2.6666668E-1,-5.126263E-1,5.0396824E-1,1.0797342E-1,7.751938E-1,5.464481E-1,3.9553428E-1,1.25E-1,2.687E-1,2.116E-1,1.6666667E-1,8.695652E-1,-1.507325E-1,2.275E-1,2.3E1,2.388E-1,8.3333336E-2,1.079E-1,5.050505E-1,3.245E-1,1.1111111E-1,-1.4102857E-1,1.17109634E-1,-4.8484847E-2,4.347826E-2,-5.807201E-3,-3.7593983E-2,-1.6369048E-1,2.2222222E-1,1.952E-1,-1.0611105E-2,-5.9257853E-3,-1.4951753E-2,-1.10605825E-2,-2.5770536E-2,-2.1816088E-2,-2.1810472E-2,-1.7036796E-2,-2.1295457E-3,3.0139735E-2,4.3412885E-3,-3.6815337E-3,2.2411859E-2,-1.0392244E-2,3.355968E-2,-3.9246837E-3,2.6606219E-2,3.5133525E-3,4.8375525E-2,3.0765878E-2,-7.209295E-3,3.7017446E-2,4.8636775E-2,4.062397E-2,-2.477091E-3,2.6745994E-2,1.1770112E-2,8.057232E-3,2.8850092E-2,2.0360395E-2,2.8275294E-2,1.6646158E-2],"split_indices":[12,12,15,15,15,12,12,15,12,22,22,9,12,0,21,25,22,12,22,11,23,15,19,17,4,9,2,4,15,9,23,0,0,0,0,0,0,0,0,0,0,0,0,0,0,0,0,0,0,0,0,0,0,0,0,0,0,0,0,0,0,0,0],"split_type":[0,0,0,0,0,0,0,0,0,0,0,0,0,0,0,0,0,0,0,0,0,0,0,0,0,0,0,0,0,0,0,0,0,0,0,0,0,0,0,0,0,0,0,0,0,0,0,0,0,0,0,0,0,0,0,0,0,0,0,0,0,0,0],"sum_hessian":[1.0887278E5,7.797539E4,3.0897389E4,3.636594E4,4.1609453E4,6.741639E3,2.415575E4,2.118936E4,1.5176581E4,1.992676E4,2.1682693E4,2.9751682E3,3.766471E3,1.3174115E4,1.0981635E4,1.1977047E4,9.2123125E3,6.8119077E3,8.364673E3,3.578545E3,1.6348216E4,3.4232896E3,1.8259402E4,1.2095323E3,1.7656359E3,2.020508E3,1.7459628E3,5.041963E2,1.2669919E4,3.4777468E3,7.5038877E3,9.091544E3,2.8855032E3,6.2616963E3,2.9506157E3,2.980348E3,3.83156E3,1.382679E3,6.981994E3,3.503339E3,7.5205635E1,1.5465067E4,8.8314813E2,2.959272E1,3.393697E3,6.0572266E1,1.819883E4,1.0531152E3,1.5641702E2,1.06527504E2,1.6591084E3,2.593234E1,1.9945757E3,9.6203516E2,7.839276E2,5.527642E1,4.4891986E2,5.7133623E3,6.9565566E3,1.4042089E3,2.073538E3,6.5104504E2,6.852843E3],"tree_param":{"num_deleted":"0","num_feature":"31","num_nodes":"63","size_leaf_vector":"1"}},{"base_weights":[-4.4585633E-4,-2.4050027E-1,3.200925E-1,-4.1737443E-1,-9.477695E-2,1.8278947E-1,5.619002E-1,-5.962961E-1,-3.389003E-1,-1.8070695E-1,-2.904843E-2,1.2404443E-1,2.6944458E-1,7.539968E-1,4.9815172E-1,-5.39426E-1,-6.7988837E-1,-3.8128698E-1,-2.9842243E-1,-1.87135E-1,3.0406283E-2,4.092776E-2,-5.6977216E-2,1.5707164E-1,6.0587987E-2,3.0000064E-1,1.9233829E-1,8.605343E-1,6.8678653E-1,5.7888097E-1,4.4153056E-1,-2.2067806E-2,-8.5944E-3,-2.9213872E-2,-2.4493663E-2,2.8702535E-2,-1.5436658E-2,3.0683087E-2,-1.2084706E-2,-6.6096825E-3,-9.221473E-3,2.2344574E-2,-1.7996171E-3,-1.4938459E-4,5.8756582E-3,-4.3460513E-3,-2.3014008E-4,8.009183E-3,3.8549528E-3,3.0951353E-3,-8.829404E-3,1.4315501E-2,9.9608E-3,2.1754438E-2,6.7545795E-3,3.4683514E-2,1.31056495E-2,2.9900959E-2,2.26947E-2,2.343442E-2,-1.8497484E-2,1.9820493E-2,1.5682748E-2],"categories":[],"categories_nodes":[],"categories_segments":[],"categories_sizes":[],"default_left":[0,0,0,0,0,0,0,0,0,0,0,0,0,0,0,0,0,0,0,0,0,0,0,0,0,0,0,0,0,0,0,0,0,0,0,0,0,0,0,0,0,0,0,0,0,0,0,0,0,0,0,0,0,0,0,0,0,0,0,0,0,0,0],"id":12,"left_children":[1,3,5,7,9,11,13,15,17,19,21,23,25,27,29,31,33,35,37,39,41,43,45,47,49,51,53,55,57,59,61,-1,-1,-1,-1,-1,-1,-1,-1,-1,-1,-1,-1,-1,-1,-1,-1,-1,-1,-1,-1,-1,-1,-1,-1,-1,-1,-1,-1,-1,-1,-1,-1],"loss_changes":[9.437907E3,1.8075549E3,1.743625E3,4.4450928E2,2.1716394E2,1.7047229E2,2.324336E2,4.541797E1,3.7605225E1,2.2636597E1,4.2589146E1,4.1819733E1,3.1780273E1,3.317456E1,6.4940186E1,2.2711914E1,1.272876E1,5.494763E1,4.4564026E1,1.5290039E1,1.9703518E1,2.9430073E1,4.121533E1,3.4351105E1,3.2303455E1,2.8447266E1,3.1563309E1,5.9801025E0,2.0552979E1,4.305481E1,2.2148682E1,0E0,0E0,0E0,0E0,0E0,0E0,0E0,0E0,0E0,0E0,0E0,0E0,0E0,0E0,0E0,0E0,0E0,0E0,0E0,0E0,0E0,0E0,0E0,0E0,0E0,0E0,0E0,0E0,0E0,0E0,0E0,0E0],"parents":[2147483647,0,0,1,1,2,2,3,3,4,4,5,5,6,6,7,7,8,8,9,9,10,10,11,11,12,12,13,13,14,14,15,15,16,16,17,17,18,18,19,19,20,20,21,21,22,22,23,23,24,24,25,25,26,26,27,27,28,28,29,29,30,30],"right_children":[2,4,6,8,10,12,14,16,18,20,22,24,26,28,30,32,34,36,38,40,42,44,46,48,50,52,54,56,58,60,62,-1,-1,-1,-1,-1,-1,-1,-1,-1,-1,-1,-1,-1,-1,-1,-1,-1,-1,-1,-1,-1,-1,-1,-1,-1,-1,-1,-1,-1,-1,-1,-1],"split_conditions":[5.1282054E-1,3.5714287E-1,6.756757E-1,2.0833333E-1,4.2553192E-1,6.0240966E-1,1.6E-1,7.751938E-1,2.9411766E-1,3.4E1,-3.9473683E-2,2.857143E-1,4.4852942E-2,1.1111111E-1,1.4285715E-1,1.4285715E-1,-7.1483557E-3,4.347826E-1,1.227E-1,1.1336898E-1,-3E0,3.0303031E-2,4.329E-1,2.675E-1,1.1997636E-1,2.6666668E-1,6.5474704E-2,9.8E1,-3.6044696E-3,8E0,1.73E-1,-2.2067806E-2,-8.5944E-3,-2.9213872E-2,-2.4493663E-2,2.8702535E-2,-1.5436658E-2,3.0683087E-2,-1.2084706E-2,-6.6096825E-3,-9.221473E-3,2.2344574E-2,-1.7996171E-3,-1.4938459E-4,5.8756582E-3,-4.3460513E-3,-2.3014008E-4,8.009183E-3,3.8549528E-3,3.0951353E-3,-8.829404E-3,1.4315501E-2,9.9608E-3,2.1754438E-2,6.7545795E-3,3.4683514E-2,1.31056495E-2,2.9900959E-2,2.26947E-2,2.343442E-2,-1.8497484E-2,1.9820493E-2,1.5682748E-2],"split_indices":[10,10,10,10,10,10,14,12,10,26,4,12,19,14,12,7,5,12,23,17,24,8,21,23,17,13,17,27,4,24,22,0,0,0,0,0,0,0,0,0,0,0,0,0,0,0,0,0,0,0,0,0,0,0,0,0,0,0,0,0,0,0,0],"split_type":[0,0,0,0,0,0,0,0,0,0,0,0,0,0,0,0,0,0,0,0,0,0,0,0,0,0,0,0,0,0,0,0,0,0,0,0,0,0,0,0,0,0,0,0,0,0,0,0,0,0,0,0,0,0,0,0,0,0,0,0,0,0,0],"sum_hessian":[1.2265332E5,7.013161E4,5.252171E4,3.1678607E4,3.8453004E4,3.350124E4,1.9020473E4,9.655688E3,2.2022918E4,1.6664043E4,2.1788959E4,1.9968096E4,1.3533143E4,4.7362085E3,1.4284264E4,5.7514644E3,3.9042246E3,1.075249E4,1.1270428E4,1.6172213E4,4.918298E2,6.2144565E3,1.5574503E4,1.3130833E4,6.837262E3,9.689252E3,3.8438906E3,1.8269497E3,2.9092585E3,5.883994E3,8.40027E3,5.5409976E3,2.1046667E2,2.2283345E3,1.6758901E3,4.4373512E1,1.0708117E4,3.8144215E1,1.1232283E4,1.0754495E4,5.4177173E3,6.0799934E1,4.3102988E2,4.371813E3,1.8426433E3,7.751639E3,7.8228643E3,7.671923E3,5.4589106E3,6.4531924E3,3.8406982E2,4.5335566E3,5.1556953E3,2.3896318E2,3.6049272E3,1.8039501E3,2.299974E1,1.9243981E3,9.8486053E2,5.8453486E3,3.864546E1,4.0113342E3,4.3889355E3],"tree_param":{"num_deleted":"0","num_feature":"31","num_nodes":"63","size_leaf_vector":"1"}},{"base_weights":[-2.9205906E-4,-1.6652866E-1,7.752341E-2,-2.9883727E-1,-8.651185E-2,1.577879E-2,1.5375513E-1,-4.1079322E-1,-2.252897E-1,-6.0311824E-2,-2.2804058E-1,3.388525E-2,-9.587624E-2,1.6397871E-1,-7.313335E-2,-3.1909183E-1,-4.702914E-1,-5.3001547E-1,-2.0591335E-1,-6.599031E-2,4.9761263E-1,-5.1937673E-2,-2.7869594E-1,2.0643973E-1,2.5284525E-2,-1.05608016E-1,4.9457335E-1,1.5239078E-1,2.9752517E-1,-1.369653E-1,4.333729E-1,-7.3599294E-3,-1.5817141E-2,6.361475E-3,-1.94729E-2,-1.3501414E-2,-2.289555E-2,-1.0360412E-2,-3.8635142E-3,-1.4633948E-3,-6.5275272E-3,4.1047793E-2,5.0636325E-3,-4.476996E-3,2.7628954E-2,-7.1665053E-3,-1.3775504E-2,1.1916587E-2,7.52845E-4,3.749335E-3,3.8508503E-4,-2.102545E-3,-7.5109093E-3,5.0385457E-2,-5.585529E-3,-4.0460847E-4,6.463915E-3,1.0952055E-2,5.1413354E-2,-3.0115119E-3,-2.1069378E-2,-2.0385966E-2,2.9650059E-2],"categories":[],"categories_nodes":[],"categories_segments":[],"categories_sizes":[],"default_left":[0,0,0,0,0,0,0,0,0,0,0,0,0,0,0,0,0,0,0,0,0,0,0,0,0,0,0,0,0,0,0,0,0,0,0,0,0,0,0,0,0,0,0,0,0,0,0,0,0,0,0,0,0,0,0,0,0,0,0,0,0,0,0],"id":13,"left_children":[1,3,5,7,9,11,13,15,17,19,21,23,25,27,29,31,33,35,37,39,41,43,45,47,49,51,53,55,57,59,61,-1,-1,-1,-1,-1,-1,-1,-1,-1,-1,-1,-1,-1,-1,-1,-1,-1,-1,-1,-1,-1,-1,-1,-1,-1,-1,-1,-1,-1,-1,-1,-1],"loss_changes":[1.1602205E3,3.0269916E2,2.875355E2,8.857855E1,6.604384E1,6.823917E1,6.3434692E1,2.307306E1,3.8235535E1,4.764015E1,2.477826E1,4.307953E1,2.7075142E1,4.0393005E1,3.814844E1,1.7239746E1,2.7029053E1,2.8807755E0,3.5462738E1,4.2531654E1,2.9461735E1,2.7790236E1,1.4013229E1,2.361866E1,2.964277E1,2.0163681E1,3.7345375E1,3.603662E1,4.8398804E1,2.5093714E1,3.8730656E1,0E0,0E0,0E0,0E0,0E0,0E0,0E0,0E0,0E0,0E0,0E0,0E0,0E0,0E0,0E0,0E0,0E0,0E0,0E0,0E0,0E0,0E0,0E0,0E0,0E0,0E0,0E0,0E0,0E0,0E0,0E0,0E0],"parents":[2147483647,0,0,1,1,2,2,3,3,4,4,5,5,6,6,7,7,8,8,9,9,10,10,11,11,12,12,13,13,14,14,15,15,16,16,17,17,18,18,19,19,20,20,21,21,22,22,23,23,24,24,25,25,26,26,27,27,28,28,29,29,30,30],"right_children":[2,4,6,8,10,12,14,16,18,20,22,24,26,28,30,32,34,36,38,40,42,44,46,48,50,52,54,56,58,60,62,-1,-1,-1,-1,-1,-1,-1,-1,-1,-1,-1,-1,-1,-1,-1,-1,-1,-1,-1,-1,-1,-1,-1,-1,-1,-1,-1,-1,-1,-1,-1,-1],"split_conditions":[2.5641027E-1,2.1052632E-1,2.633E-1,1.609E-1,1E-1,1.0294118E-1,1.1764706E-1,-2.9880645E-2,1.0526316E-1,5.025312E-2,1E0,-8.108108E-2,3.8E1,3.245E-1,1.2026144E-1,5.1E1,-7.710073E-2,1.527E-1,2.145E-1,6.666667E-1,-2.3809524E-2,1.9392963E-1,4.5E1,5.813953E-1,9.0277776E-2,3.039E-1,9.52381E-3,-2.936508E-1,8.25E-2,2.777778E-1,-1.22E-2,-7.3599294E-3,-1.5817141E-2,6.361475E-3,-1.94729E-2,-1.3501414E-2,-2.289555E-2,-1.0360412E-2,-3.8635142E-3,-1.4633948E-3,-6.5275272E-3,4.1047793E-2,5.0636325E-3,-4.476996E-3,2.7628954E-2,-7.1665053E-3,-1.3775504E-2,1.1916587E-2,7.52845E-4,3.749335E-3,3.8508503E-4,-2.102545E-3,-7.5109093E-3,5.0385457E-2,-5.585529E-3,-4.0460847E-4,6.463915E-3,1.0952055E-2,5.1413354E-2,-3.0115119E-3,-2.1069378E-2,-2.0385966E-2,2.9650059E-2],"split_indices":[13,13,23,23,8,8,8,20,13,20,28,8,25,23,17,27,0,22,23,10,6,19,27,9,17,22,0,15,8,8,20,0,0,0,0,0,0,0,0,0,0,0,0,0,0,0,0,0,0,0,0,0,0,0,0,0,0,0,0,0,0,0,0],"split_type":[0,0,0,0,0,0,0,0,0,0,0,0,0,0,0,0,0,0,0,0,0,0,0,0,0,0,0,0,0,0,0,0,0,0,0,0,0,0,0,0,0,0,0,0,0,0,0,0,0,0,0,0,0,0,0,0,0,0,0,0,0,0,0],"sum_hessian":[8.9688125E4,2.8596908E4,6.1091215E4,1.077551E4,1.7821398E4,3.3754195E4,2.733702E4,4.2698667E3,6.5056436E3,1.5039411E4,2.7819873E3,2.9045625E4,4.708572E3,2.6159014E4,1.1780044E3,1.6833905E3,2.5864763E3,3.8705383E2,6.11859E3,1.4888935E4,1.5047664E2,6.223596E2,2.1596277E3,1.3773582E3,2.7668266E4,4.6331978E3,7.537382E1,2.4073066E4,2.0859478E3,1.046986E3,1.3101837E2,6.0949097E2,1.0738995E3,6.5826775E1,2.5206494E3,7.187738E1,3.1517645E2,4.116845E3,2.0017444E3,1.1432613E4,3.4563215E3,6.1221313E1,8.9255325E1,5.76757E2,4.5602627E1,8.6073193E2,1.2988958E3,9.251655E2,4.5219266E2,5.148666E3,2.2519602E4,2.8172668E3,1.8159313E3,3.3787163E1,4.158665E1,1.290188E3,2.2782879E4,2.0383716E3,4.757624E1,9.051964E2,1.4178958E2,3.200572E1,9.901265E1],"tree_param":{"num_deleted":"0","num_feature":"31","num_nodes":"63","size_leaf_vector":"1"}},{"base_weights":[-8.1288665E-5,3.2130966E-1,-2.6431066E-1,1.7818554E-1,6.706526E-1,-1.5198378E-1,-4.456331E-1,8.828025E-2,2.940175E-1,5.631058E-1,9.609238E-1,-1.9107303E-1,-3.939444E-2,-5.56232E-1,-3.7715206E-1,-1.4208168E-2,1.0925186E-1,3.7515637E-1,2.4362731E-1,6.8167794E-1,5.1520497E-1,1.0853888E0,8.7441653E-1,-2.5301874E-1,-1.554922E-1,-1.2768477E-1,-5.1261284E-3,-6.3206166E-1,-5.179123E-1,-3.635421E-1,-5.7720876E-1,9.058239E-3,-2.763653E-3,4.1731163E-3,2.6272776E-2,1.32474005E-2,2.0522121E-2,8.6541055E-3,1.50304735E-2,3.3978544E-2,2.4901094E-2,1.26938885E-2,2.1558547E-2,4.6883002E-2,3.894814E-2,3.8607143E-2,3.0303858E-2,4.007791E-2,-1.0203153E-2,-6.445118E-3,1.2266211E-2,-3.723804E-3,-1.8890183E-2,-1.1731589E-3,7.954132E-3,-2.5840972E-2,-1.6324617E-2,-2.0859417E-2,2.6222713E-2,-2.0210642E-2,-1.40741505E-2,-7.1450374E-3,-2.3391744E-2],"categories":[],"categories_nodes":[],"categories_segments":[],"categories_sizes":[],"default_left":[0,0,0,0,0,0,0,0,0,0,0,0,0,0,0,0,0,0,0,0,0,0,0,0,0,0,0,0,0,0,0,0,0,0,0,0,0,0,0,0,0,0,0,0,0,0,0,0,0,0,0,0,0,0,0,0,0,0,0,0,0,0,0],"id":14,"left_children":[1,3,5,7,9,11,13,15,17,19,21,23,25,27,29,31,33,35,37,39,41,43,45,47,49,51,53,55,57,59,61,-1,-1,-1,-1,-1,-1,-1,-1,-1,-1,-1,-1,-1,-1,-1,-1,-1,-1,-1,-1,-1,-1,-1,-1,-1,-1,-1,-1,-1,-1,-1,-1],"loss_changes":[9.266996E3,2.4615962E3,1.2196445E3,3.6367993E2,4.4599854E2,1.6272754E2,1.7319824E2,4.228241E1,6.224939E1,5.884375E1,4.0487305E1,6.042224E1,2.882732E1,2.500415E1,3.822693E1,4.4127026E1,4.3876755E1,3.5184814E1,3.3804688E1,2.911023E1,3.4732056E1,1.3949585E1,2.3342773E1,2.6065247E1,4.545584E1,3.1656605E1,3.3900433E1,8.806519E0,2.4748169E1,2.1690552E1,2.5377502E0,0E0,0E0,0E0,0E0,0E0,0E0,0E0,0E0,0E0,0E0,0E0,0E0,0E0,0E0,0E0,0E0,0E0,0E0,0E0,0E0,0E0,0E0,0E0,0E0,0E0,0E0,0E0,0E0,0E0,0E0,0E0,0E0],"parents":[2147483647,0,0,1,1,2,2,3,3,4,4,5,5,6,6,7,7,8,8,9,9,10,10,11,11,12,12,13,13,14,14,15,15,16,16,17,17,18,18,19,19,20,20,21,21,22,22,23,23,24,24,25,25,26,26,27,27,28,28,29,29,30,30],"right_children":[2,4,6,8,10,12,14,16,18,20,22,24,26,28,30,32,34,36,38,40,42,44,46,48,50,52,54,56,58,60,62,-1,-1,-1,-1,-1,-1,-1,-1,-1,-1,-1,-1,-1,-1,-1,-1,-1,-1,-1,-1,-1,-1,-1,-1,-1,-1,-1,-1,-1,-1,-1,-1],"split_conditions":[9.090909E-2,5.882353E-1,4.105917E-1,4.5454547E-1,7.751938E-1,3.2258064E-1,1.4285715E-1,2.726E-1,-2.9735355E-2,-5.126263E-1,7.1428575E-2,2.304E-1,-4.140787E-2,8.3333336E-2,7.443E-1,3.773585E-1,5.009E-1,5.464481E-1,5.235E-1,3.4E1,-2.8608572E-1,-5.807201E-3,-6.4102565E-3,4.225E-1,4.2E1,1E0,2.3809524E-2,1E0,4.336E-1,-5.263158E-2,-6.593407E-2,9.058239E-3,-2.763653E-3,4.1731163E-3,2.6272776E-2,1.32474005E-2,2.0522121E-2,8.6541055E-3,1.50304735E-2,3.3978544E-2,2.4901094E-2,1.26938885E-2,2.1558547E-2,4.6883002E-2,3.894814E-2,3.8607143E-2,3.0303858E-2,4.007791E-2,-1.0203153E-2,-6.445118E-3,1.2266211E-2,-3.723804E-3,-1.8890183E-2,-1.1731589E-3,7.954132E-3,-2.5840972E-2,-1.6324617E-2,-2.0859417E-2,2.6222713E-2,-2.0210642E-2,-1.40741505E-2,-7.1450374E-3,-2.3391744E-2],"split_indices":[15,12,15,12,12,12,12,22,0,15,10,22,4,12,21,10,21,12,22,27,19,2,5,21,25,29,0,30,22,5,5,0,0,0,0,0,0,0,0,0,0,0,0,0,0,0,0,0,0,0,0,0,0,0,0,0,0,0,0,0,0,0,0],"split_type":[0,0,0,0,0,0,0,0,0,0,0,0,0,0,0,0,0,0,0,0,0,0,0,0,0,0,0,0,0,0,0,0,0,0,0,0,0,0,0,0,0,0,0,0,0,0,0,0,0,0,0,0,0,0,0,0,0,0,0,0,0,0,0],"sum_hessian":[1.0912308E5,4.9235594E4,5.9887484E4,3.4927688E4,1.4307907E4,3.6980773E4,2.2906709E4,1.9666084E4,1.5261602E4,1.0442278E4,3.8656287E3,2.7449242E4,9.531531E3,8.756356E3,1.4150353E4,3.3398345E3,1.632625E4,5.843651E3,9.417951E3,3.0002488E3,7.44203E3,1.5798578E3,2.285771E3,1.0011113E4,1.7438129E4,2.6635088E3,6.8680225E3,2.93341E3,5.822947E3,1.3252121E4,8.9823145E2,6.1928864E2,2.720546E3,1.6182107E4,1.4414275E2,4.4339243E3,1.4097264E3,7.8093667E3,1.6085842E3,7.7808655E2,2.222162E3,7.998251E2,6.6422046E3,8.836271E2,6.962307E2,1.2817842E3,1.00398676E3,1.5531606E1,9.995582E3,1.7228896E4,2.092333E2,2.4219424E3,2.4156656E2,6.140748E3,7.272739E2,2.7590564E3,1.7435342E2,5.805909E3,1.7037506E1,1.0057984E3,1.2246323E4,1.7478401E1,8.8075305E2],"tree_param":{"num_deleted":"0","num_feature":"31","num_nodes":"63","size_leaf_vector":"1"}},{"base_weights":[1.5496209E-3,-2.2123514E-1,3.250339E-1,-4.0318054E-1,-8.107116E-2,2.1111634E-1,5.867643E-1,-5.6341696E-1,-3.1639037E-1,-1.7418861E-1,-1.7379936E-2,1.3287836E-1,2.9023686E-1,7.6450497E-1,5.3106844E-1,-6.501141E-1,-4.979488E-1,-3.182325E-1,5.6958276E-1,-1.7991109E-1,1.9852215E-2,-5.8157787E-2,2.1893702E-2,1.2445521E-1,3.174046E-1,2.48123E-1,3.7006447E-1,8.454383E-1,7.000733E-1,5.8107954E-1,4.6560353E-1,-2.6382038E-2,-1.1165168E-2,-2.0192342E-2,6.837343E-3,1.0300624E-3,-1.2908001E-2,-3.925611E-3,4.1580394E-2,1.1459372E-2,-7.280167E-3,-9.0278924E-4,3.7501913E-2,2.1554232E-3,-4.3126605E-3,4.624666E-3,-2.5085357E-4,1.1835632E-2,4.585996E-3,-2.204226E-2,1.48606E-2,2.261008E-2,9.572368E-3,1.079444E-2,1.6176827E-2,2.268512E-2,3.4130897E-2,3.0613825E-2,2.3870097E-2,2.08545E-2,2.6274685E-2,1.9276293E-2,5.2910047E-3],"categories":[],"categories_nodes":[],"categories_segments":[],"categories_sizes":[],"default_left":[0,0,0,0,0,0,0,0,0,0,0,0,0,0,0,0,0,0,0,0,0,0,0,0,0,0,0,0,0,0,0,0,0,0,0,0,0,0,0,0,0,0,0,0,0,0,0,0,0,0,0,0,0,0,0,0,0,0,0,0,0,0,0],"id":15,"left_children":[1,3,5,7,9,11,13,15,17,19,21,23,25,27,29,31,33,35,37,39,41,43,45,47,49,51,53,55,57,59,61,-1,-1,-1,-1,-1,-1,-1,-1,-1,-1,-1,-1,-1,-1,-1,-1,-1,-1,-1,-1,-1,-1,-1,-1,-1,-1,-1,-1,-1,-1,-1,-1],"loss_changes":[8.824147E3,1.8490022E3,1.4886729E3,4.3850293E2,2.4288708E2,2.1530469E2,1.4936719E2,6.2468506E1,3.3561768E1,1.8491089E1,3.89588E1,2.7112213E1,5.8000244E1,1.807959E1,3.738452E1,1.6402344E1,2.91167E1,3.1428955E1,1.3599459E1,1.5816284E1,1.8679836E1,6.641524E1,3.2716988E1,2.805722E1,3.602704E1,3.1447083E1,2.0380127E1,2.8509521E0,1.3006287E1,2.9109375E1,2.7052246E1,0E0,0E0,0E0,0E0,0E0,0E0,0E0,0E0,0E0,0E0,0E0,0E0,0E0,0E0,0E0,0E0,0E0,0E0,0E0,0E0,0E0,0E0,0E0,0E0,0E0,0E0,0E0,0E0,0E0,0E0,0E0,0E0],"parents":[2147483647,0,0,1,1,2,2,3,3,4,4,5,5,6,6,7,7,8,8,9,9,10,10,11,11,12,12,13,13,14,14,15,15,16,16,17,17,18,18,19,19,20,20,21,21,22,22,23,23,24,24,25,25,26,26,27,27,28,28,29,29,30,30],"right_children":[2,4,6,8,10,12,14,16,18,20,22,24,26,28,30,32,34,36,38,40,42,44,46,48,50,52,54,56,58,60,62,-1,-1,-1,-1,-1,-1,-1,-1,-1,-1,-1,-1,-1,-1,-1,-1,-1,-1,-1,-1,-1,-1,-1,-1,-1,-1,-1,-1,-1,-1,-1,-1],"split_conditions":[2.2804055E-1,3.5714287E-1,5.405983E-1,-4.027778E-1,4.2553192E-1,6.0240966E-1,8.3333336E-2,1.5384616E-1,5.4E1,3.4E1,4.329E-1,6.53E-1,6.666667E-1,5.263158E-2,2.0833333E-1,4.2625748E-2,7.608695E-2,-1.5398064E-1,3.5395123E-2,-1.6666667E-1,5.211E-1,-3.8610037E-2,-1.7182609E-2,-2.930403E-2,-2.745098E-2,6.0784314E-2,4E0,9.009009E-1,5.7967946E-2,9.52381E-2,1.7104286E-1,-2.6382038E-2,-1.1165168E-2,-2.0192342E-2,6.837343E-3,1.0300624E-3,-1.2908001E-2,-3.925611E-3,4.1580394E-2,1.1459372E-2,-7.280167E-3,-9.0278924E-4,3.7501913E-2,2.1554232E-3,-4.3126605E-3,4.624666E-3,-2.5085357E-4,1.1835632E-2,4.585996E-3,-2.204226E-2,1.48606E-2,2.261008E-2,9.572368E-3,1.079444E-2,1.6176827E-2,2.268512E-2,3.4130897E-2,3.0613825E-2,2.3870097E-2,2.08545E-2,2.6274685E-2,1.9276293E-2,5.2910047E-3],"split_indices":[15,10,15,15,10,10,12,10,25,26,21,21,10,12,14,0,2,18,18,15,21,4,18,2,2,17,26,10,19,8,19,0,0,0,0,0,0,0,0,0,0,0,0,0,0,0,0,0,0,0,0,0,0,0,0,0,0,0,0,0,0,0,0],"split_type":[0,0,0,0,0,0,0,0,0,0,0,0,0,0,0,0,0,0,0,0,0,0,0,0,0,0,0,0,0,0,0,0,0,0,0,0,0,0,0,0,0,0,0,0,0,0,0,0,0,0,0,0,0,0,0,0,0,0,0,0,0,0,0],"sum_hessian":[1.2244088E5,7.250585E4,4.9935027E4,3.1549365E4,4.095649E4,3.4793445E4,1.5141582E4,1.1082199E4,2.0467166E4,1.663402E4,2.4322469E4,1.7496275E4,1.7297172E4,3.609177E3,1.1532405E4,4.763547E3,6.3186523E3,2.0425451E4,4.1715458E1,1.6158087E4,4.759322E2,1.1933731E4,1.2388737E4,1.67346E4,7.616761E2,1.1326906E4,5.970265E3,1.5936732E3,2.0155038E3,6.5325483E3,4.9998574E3,4.64436E3,1.19186806E2,6.2548994E3,6.3752697E1,2.615295E2,2.016392E4,1.7470232E1,2.4245228E1,7.1369705E1,1.6086718E4,4.557317E2,2.0200489E1,3.6642058E3,8.269525E3,2.8628074E3,9.525931E3,9.032277E2,1.5831372E4,4.402656E1,7.1764954E2,3.0427615E2,1.102263E4,1.5273516E3,4.4429136E3,4.599094E1,1.5476823E3,1.2306637E3,7.8484015E2,3.6587927E3,2.8737556E3,4.765996E3,2.33861E2],"tree_param":{"num_deleted":"0","num_feature":"31","num_nodes":"63","size_leaf_vector":"1"}},{"base_weights":[-1.148512E-4,-1.622667E-1,7.4978925E-2,-2.948452E-1,-8.298213E-2,1.213703E-2,1.5249227E-1,-3.3799243E-1,-1.213467E-1,-5.5915494E-2,-2.289161E-1,3.1102264E-2,-1.0547865E-1,1.622476E-1,-6.17E-2,-2.870653E-1,-4.3570444E-1,9.077577E-1,-1.4147328E-1,-6.1290454E-2,4.767409E-1,-4.450872E-2,-2.8267744E-1,2.0593978E-1,2.2393735E-2,3.1394088E-1,-1.176516E-1,1.7134376E-1,-8.850356E-3,-1.2443518E-1,4.4907713E-1,-1.4362833E-2,-9.138558E-3,1.4590822E-3,-1.7993378E-2,6.0822237E-2,6.0068006E-3,3.4076432E-4,-1.0361807E-2,-3.0084657E-3,4.792235E-3,3.5729587E-2,2.993573E-3,5.8482564E-3,-1.219192E-2,-1.4149355E-2,-7.4793003E-3,1.7284641E-2,4.926252E-3,1.6782912E-4,3.720054E-3,3.649892E-2,-1.2609039E-2,-4.8997775E-3,3.6505993E-2,5.8618896E-3,8.991422E-3,-1.2748122E-2,1.4766079E-3,-2.3003821E-3,-1.7771434E-2,3.806391E-2,-5.38485E-3],"categories":[],"categories_nodes":[],"categories_segments":[],"categories_sizes":[],"default_left":[0,0,0,0,0,0,0,0,0,0,0,0,0,0,0,0,0,0,0,0,0,0,0,0,0,0,0,0,0,0,0,0,0,0,0,0,0,0,0,0,0,0,0,0,0,0,0,0,0,0,0,0,0,0,0,0,0,0,0,0,0,0,0],"id":16,"left_children":[1,3,5,7,9,11,13,15,17,19,21,23,25,27,29,31,33,35,37,39,41,43,45,47,49,51,53,55,57,59,61,-1,-1,-1,-1,-1,-1,-1,-1,-1,-1,-1,-1,-1,-1,-1,-1,-1,-1,-1,-1,-1,-1,-1,-1,-1,-1,-1,-1,-1,-1,-1,-1],"loss_changes":[1.0909215E3,2.9802124E2,2.9825247E2,7.935016E1,7.00607E1,7.543195E1,5.730475E1,4.208557E1,4.386671E1,4.2854958E1,2.74738E1,4.4316353E1,2.399028E1,4.0827637E1,3.8299915E1,2.3444244E1,1.9464172E1,1.8461243E1,3.6633465E1,3.737779E1,2.4862598E1,3.1243912E1,1.4489716E1,2.5751602E1,3.5638657E1,5.0234295E1,2.2805092E1,3.2924988E1,1.8815947E1,2.271765E1,3.8548912E1,0E0,0E0,0E0,0E0,0E0,0E0,0E0,0E0,0E0,0E0,0E0,0E0,0E0,0E0,0E0,0E0,0E0,0E0,0E0,0E0,0E0,0E0,0E0,0E0,0E0,0E0,0E0,0E0,0E0,0E0,0E0,0E0],"parents":[2147483647,0,0,1,1,2,2,3,3,4,4,5,5,6,6,7,7,8,8,9,9,10,10,11,11,12,12,13,13,14,14,15,15,16,16,17,17,18,18,19,19,20,20,21,21,22,22,23,23,24,24,25,25,26,26,27,27,28,28,29,29,30,30],"right_children":[2,4,6,8,10,12,14,16,18,20,22,24,26,28,30,32,34,36,38,40,42,44,46,48,50,52,54,56,58,60,62,-1,-1,-1,-1,-1,-1,-1,-1,-1,-1,-1,-1,-1,-1,-1,-1,-1,-1,-1,-1,-1,-1,-1,-1,-1,-1,-1,-1,-1,-1,-1,-1],"split_conditions":[2.5641027E-1,2.1052632E-1,2.633E-1,2.133E-1,1E-1,1.0294118E-1,1.1764706E-1,5.1282052E-2,-2.033097E-1,5.025312E-2,1E0,-8.108108E-2,-1.2E1,5.555556E-1,1.2026144E-1,1.609E-1,-1.4E1,1.5E1,-1.6666668E-2,1.3335384E-1,-5.807201E-3,-3.3627573E-2,1.4E1,3.565E-1,6.2942855E-2,-7.608695E-2,5.3E1,1.1363637E-1,2.675E-1,5.025312E-2,7.4242425E-1,-1.4362833E-2,-9.138558E-3,1.4590822E-3,-1.7993378E-2,6.0822237E-2,6.0068006E-3,3.4076432E-4,-1.0361807E-2,-3.0084657E-3,4.792235E-3,3.5729587E-2,2.993573E-3,5.8482564E-3,-1.219192E-2,-1.4149355E-2,-7.4793003E-3,1.7284641E-2,4.926252E-3,1.6782912E-4,3.720054E-3,3.649892E-2,-1.2609039E-2,-4.8997775E-3,3.6505993E-2,5.8618896E-3,8.991422E-3,-1.2748122E-2,1.4766079E-3,-2.3003821E-3,-1.7771434E-2,3.806391E-2,-5.38485E-3],"split_indices":[13,13,23,23,8,8,8,8,0,20,28,8,24,12,17,23,24,25,4,18,2,4,25,21,18,1,25,17,23,20,7,0,0,0,0,0,0,0,0,0,0,0,0,0,0,0,0,0,0,0,0,0,0,0,0,0,0,0,0,0,0,0,0],"split_type":[0,0,0,0,0,0,0,0,0,0,0,0,0,0,0,0,0,0,0,0,0,0,0,0,0,0,0,0,0,0,0,0,0,0,0,0,0,0,0,0,0,0,0,0,0,0,0,0,0,0,0,0,0,0,0,0,0,0,0,0,0,0,0],"sum_hessian":[8.958896E4,2.8357049E4,6.123191E4,1.0610443E4,1.7746605E4,3.3817617E4,2.7414291E4,8.496043E3,2.1144004E3,1.4971823E4,2.7747825E3,2.9123166E4,4.6944517E3,2.6220781E4,1.1935096E3,5.5883687E3,2.9076743E3,3.9617603E1,2.0747827E3,1.4823316E4,1.4850731E2,6.2717865E2,2.1476038E3,1.3801588E3,2.7743008E4,1.3147488E2,4.562977E3,2.4897717E4,1.3230646E3,1.0638024E3,1.2970723E2,2.5043516E3,3.0840173E3,8.4232155E1,2.8234421E3,2.1271992E1,1.8345612E1,9.1172565E2,1.163057E3,1.376622E4,1.0570963E3,7.220669E1,7.630061E1,3.6199637E2,2.6518225E2,1.2303154E3,9.172884E2,3.6834903E2,1.01180975E3,2.205989E4,5.683116E3,6.722848E1,6.42464E1,4.542603E3,2.0373901E1,1.7010576E4,7.8871406E3,1.6978276E2,1.1532819E3,8.809621E2,1.8284026E2,6.945376E1,6.0253464E1],"tree_param":{"num_deleted":"0","num_feature":"31","num_nodes":"63","size_leaf_vector":"1"}},{"base_weights":[-1.958501E-3,3.1075093E-1,-2.539812E-1,6.093971E-1,1.5884863E-1,-1.4123817E-1,-4.3214932E-1,8.4859306E-1,4.859676E-1,2.8758362E-1,1.0056914E-1,-8.493603E-2,-2.1169911E-1,-3.6090735E-1,-5.349318E-1,9.718474E-1,7.395504E-1,3.9185777E-1,5.201458E-1,2.4328141E-1,4.1672686E-1,1.3461868E-1,3.203536E-2,-8.985369E-2,5.029929E-1,-1.14076085E-1,-2.2915818E-1,-4.1595435E-1,-3.3614174E-1,-4.858133E-1,-5.889721E-1,3.5024084E-2,4.2200584E-2,2.8850518E-2,4.3477137E-2,1.2541102E-2,2.3656923E-2,2.0234657E-2,3.2928273E-2,8.434843E-3,1.56285E-2,1.814553E-2,2.1173416E-3,7.954465E-3,3.6683918E-3,-1.5939338E-3,3.3984194E-3,-2.1457765E-3,-6.41639E-3,-1.9138066E-2,2.979994E-2,1.0127576E-2,-5.631556E-3,-1.0036361E-2,-6.1577247E-3,-2.643179E-3,-1.7369298E-2,-5.1783873E-3,-1.3808195E-2,-2.1724738E-2,-1.4765077E-2,-4.717666E-3,-2.3803184E-2],"categories":[],"categories_nodes":[],"categories_segments":[],"categories_sizes":[],"default_left":[0,0,0,0,0,0,0,0,0,0,0,0,0,0,0,0,0,0,0,0,0,0,0,0,0,0,0,0,0,0,0,0,0,0,0,0,0,0,0,0,0,0,0,0,0,0,0,0,0,0,0,0,0,0,0,0,0,0,0,0,0,0,0],"id":17,"left_children":[1,3,5,7,9,11,13,15,17,19,21,23,25,27,29,31,33,35,37,39,41,43,45,47,49,51,53,55,57,59,61,-1,-1,-1,-1,-1,-1,-1,-1,-1,-1,-1,-1,-1,-1,-1,-1,-1,-1,-1,-1,-1,-1,-1,-1,-1,-1,-1,-1,-1,-1,-1,-1],"loss_changes":[8.570074E3,2.2013389E3,1.2094316E3,4.8249072E2,2.4128308E2,1.462605E2,1.7058984E2,7.393408E1,3.4426025E1,5.7181885E1,5.1658035E1,5.9280853E1,2.785608E1,1.8579102E1,2.4956787E1,1.977246E1,1.7829834E1,4.47554E1,3.3702393E1,3.553418E1,3.42789E1,4.073407E1,2.7982279E1,5.1917084E1,4.0772404E1,2.443066E1,2.2648682E1,2.7242981E1,1.7730957E1,3.320703E1,1.2924194E1,0E0,0E0,0E0,0E0,0E0,0E0,0E0,0E0,0E0,0E0,0E0,0E0,0E0,0E0,0E0,0E0,0E0,0E0,0E0,0E0,0E0,0E0,0E0,0E0,0E0,0E0,0E0,0E0,0E0,0E0,0E0,0E0],"parents":[2147483647,0,0,1,1,2,2,3,3,4,4,5,5,6,6,7,7,8,8,9,9,10,10,11,11,12,12,13,13,14,14,15,15,16,16,17,17,18,18,19,19,20,20,21,21,22,22,23,23,24,24,25,25,26,26,27,27,28,28,29,29,30,30],"right_children":[2,4,6,8,10,12,14,16,18,20,22,24,26,28,30,32,34,36,38,40,42,44,46,48,50,52,54,56,58,60,62,-1,-1,-1,-1,-1,-1,-1,-1,-1,-1,-1,-1,-1,-1,-1,-1,-1,-1,-1,-1,-1,-1,-1,-1,-1,-1,-1,-1,-1,-1,-1,-1],"split_conditions":[8.4033616E-2,-2.936508E-1,4.0240964E-1,-5.613682E-1,-1.319648E-1,2.4853802E-1,5.8928573E-1,1.6129032E-1,4.214E-1,5.982906E-2,3.154574E-1,4.2E1,-1.609797E-1,1.596E-1,9.3333334E-2,4.5296166E-2,2.761E-1,7.692308E-2,3.296E-1,5.195E-1,3.056E-1,-2.173913E-2,2E0,3.125E-1,2.304E-1,2.2727273E-1,2.3E1,6.579307E-2,-2.5E-1,1.11899264E-1,3.88E-1,3.5024084E-2,4.2200584E-2,2.8850518E-2,4.3477137E-2,1.2541102E-2,2.3656923E-2,2.0234657E-2,3.2928273E-2,8.434843E-3,1.56285E-2,1.814553E-2,2.1173416E-3,7.954465E-3,3.6683918E-3,-1.5939338E-3,3.3984194E-3,-2.1457765E-3,-6.41639E-3,-1.9138066E-2,2.979994E-2,1.0127576E-2,-5.631556E-3,-1.0036361E-2,-6.1577247E-3,-2.643179E-3,-1.7369298E-2,-5.1783873E-3,-1.3808195E-2,-2.1724738E-2,-1.4765077E-2,-4.717666E-3,-2.3803184E-2],"split_indices":[15,15,15,15,15,15,15,14,22,1,14,25,18,22,8,8,23,8,21,22,23,7,24,13,23,14,25,17,7,17,21,0,0,0,0,0,0,0,0,0,0,0,0,0,0,0,0,0,0,0,0,0,0,0,0,0,0,0,0,0,0,0,0],"split_type":[0,0,0,0,0,0,0,0,0,0,0,0,0,0,0,0,0,0,0,0,0,0,0,0,0,0,0,0,0,0,0,0,0,0,0,0,0,0,0,0,0,0,0,0,0,0,0,0,0,0,0,0,0,0,0,0,0,0,0,0,0,0,0],"sum_hessian":[1.0874173E5,4.852783E4,6.02139E4,1.6359907E4,3.2167922E4,3.687936E4,2.333454E4,5.5662676E3,1.079364E4,1.0022758E4,2.2145164E4,2.0501316E4,1.6378043E4,1.3785103E4,9.5494375E3,2.60872E3,2.9575476E3,2.8797153E3,7.9139243E3,7.465423E3,2.5573347E3,1.47931045E4,7.35206E3,2.0332268E4,1.6904941E2,2.4867195E3,1.3891323E4,4.271319E3,9.513783E3,5.0087305E3,4.540707E3,1.2151814E3,1.3935386E3,2.8128328E3,1.4471486E2,2.0702185E3,8.094968E2,7.5606875E3,3.5323682E2,6.1225815E3,1.3428413E3,2.3212893E3,2.3604556E2,5.9214995E3,8.8716045E3,3.1169412E3,4.235119E3,1.3438716E4,6.8935513E3,3.3163963E1,1.3588544E2,1.6777776E2,2.3189417E3,1.0772456E4,3.1188672E3,2.1256393E2,4.0587551E3,4.0076462E2,9.113019E3,3.3560488E3,1.6526815E3,5.8591743E1,4.482115E3],"tree_param":{"num_deleted":"0","num_feature":"31","num_nodes":"63","size_leaf_vector":"1"}},{"base_weights":[-1.0045207E-4,-2.1686976E-1,3.1373948E-1,-3.947802E-1,-8.0547E-2,1.8315138E-1,5.267443E-1,-5.643771E-1,-3.2173395E-1,-1.686283E-1,-2.034129E-2,1.2760283E-1,2.5484473E-1,4.3885058E-1,6.523103E-1,-5.08804E-1,-6.4676434E-1,-3.6355028E-1,-2.8675804E-1,-1.7483884E-1,3.1512372E-2,-6.117529E-2,1.9032221E-2,8.5294135E-2,1.6254637E-1,6.9547105E-1,2.4904472E-1,4.8597777E-1,3.8969994E-1,8.031308E-1,6.0660744E-1,-1.5457023E-2,-2.163258E-2,-2.6195927E-2,-6.632298E-3,1.4656213E-3,-1.4794789E-2,-1.3988905E-2,-9.907159E-3,5.1534043E-5,-7.2309827E-3,2.0765444E-2,-1.4083786E-3,1.957225E-3,-4.371829E-3,-2.1654096E-2,8.90888E-4,3.5553207E-3,-3.0761093E-2,-3.015523E-3,6.8192757E-3,3.362097E-2,-4.406612E-3,1.1274217E-2,6.701059E-3,1.969187E-2,-2.9947506E-3,1.7872132E-2,1.3504647E-2,3.2842014E-2,2.2701299E-2,2.186541E-2,2.7112924E-2],"categories":[],"categories_nodes":[],"categories_segments":[],"categories_sizes":[],"default_left":[0,0,0,0,0,0,0,0,0,0,0,0,0,0,0,0,0,0,0,0,0,0,0,0,0,0,0,0,0,0,0,0,0,0,0,0,0,0,0,0,0,0,0,0,0,0,0,0,0,0,0,0,0,0,0,0,0,0,0,0,0,0,0],"id":18,"left_children":[1,3,5,7,9,11,13,15,17,19,21,23,25,27,29,31,33,35,37,39,41,43,45,47,49,51,53,55,57,59,61,-1,-1,-1,-1,-1,-1,-1,-1,-1,-1,-1,-1,-1,-1,-1,-1,-1,-1,-1,-1,-1,-1,-1,-1,-1,-1,-1,-1,-1,-1,-1,-1],"loss_changes":[8.3095205E3,1.752085E3,1.3878184E3,3.879961E2,2.1689413E2,1.2313025E2,2.0890137E2,4.2746094E1,3.1873535E1,2.0661774E1,3.9072395E1,2.5735107E1,3.424243E1,2.5571045E1,5.3178223E1,2.178772E1,1.4657349E1,2.5269775E1,2.9223877E1,1.6857727E1,1.6339949E1,6.32187E1,2.2419767E1,2.4188557E1,1.8045227E1,2.0576057E1,3.5560974E1,2.0249878E1,1.6034424E1,7.0443115E0,2.5112793E1,0E0,0E0,0E0,0E0,0E0,0E0,0E0,0E0,0E0,0E0,0E0,0E0,0E0,0E0,0E0,0E0,0E0,0E0,0E0,0E0,0E0,0E0,0E0,0E0,0E0,0E0,0E0,0E0,0E0,0E0,0E0,0E0],"parents":[2147483647,0,0,1,1,2,2,3,3,4,4,5,5,6,6,7,7,8,8,9,9,10,10,11,11,12,12,13,13,14,14,15,15,16,16,17,17,18,18,19,19,20,20,21,21,22,22,23,23,24,24,25,25,26,26,27,27,28,28,29,29,30,30],"right_children":[2,4,6,8,10,12,14,16,18,20,22,24,26,28,30,32,34,36,38,40,42,44,46,48,50,52,54,56,58,60,62,-1,-1,-1,-1,-1,-1,-1,-1,-1,-1,-1,-1,-1,-1,-1,-1,-1,-1,-1,-1,-1,-1,-1,-1,-1,-1,-1,-1,-1,-1,-1,-1],"split_conditions":[2.2804055E-1,3.5714287E-1,6.756757E-1,2.0833333E-1,4.2553192E-1,6.0240966E-1,6.639676E-1,7.751938E-1,-2.4786325E-1,3.4E1,4.329E-1,4.789E-1,5.5167057E-2,1.6E-1,1.1111111E-1,-5.7142857E-2,5.0125312E-2,2E0,7.5E0,-1.2028869E-1,-3E0,-3.8610037E-2,2.1052632E-1,3.2794458E-1,5.050505E-1,6.008E-1,4.4852942E-2,8E0,-6.4935065E-3,1.1587302E-1,7.092E-1,-1.5457023E-2,-2.163258E-2,-2.6195927E-2,-6.632298E-3,1.4656213E-3,-1.4794789E-2,-1.3988905E-2,-9.907159E-3,5.1534043E-5,-7.2309827E-3,2.0765444E-2,-1.4083786E-3,1.957225E-3,-4.371829E-3,-2.1654096E-2,8.90888E-4,3.5553207E-3,-3.0761093E-2,-3.015523E-3,6.8192757E-3,3.362097E-2,-4.406612E-3,1.1274217E-2,6.701059E-3,1.969187E-2,-2.9947506E-3,1.7872132E-2,1.3504647E-2,3.2842014E-2,2.2701299E-2,2.186541E-2,2.7112924E-2],"split_indices":[15,10,10,10,10,10,15,12,15,26,21,21,17,12,14,6,0,27,26,15,24,4,14,6,10,21,19,24,1,17,21,0,0,0,0,0,0,0,0,0,0,0,0,0,0,0,0,0,0,0,0,0,0,0,0,0,0,0,0,0,0,0,0],"split_type":[0,0,0,0,0,0,0,0,0,0,0,0,0,0,0,0,0,0,0,0,0,0,0,0,0,0,0,0,0,0,0,0,0,0,0,0,0,0,0,0,0,0,0,0,0,0,0,0,0,0,0,0,0,0,0,0,0,0,0,0,0,0,0],"sum_hessian":[1.2214155E5,7.224355E4,4.9898008E4,3.134004E4,4.0903504E4,3.0934902E4,1.8963104E4,9.432291E3,2.1907748E4,1.6605744E4,2.4297762E4,1.7432354E4,1.3502549E4,1.1158009E4,7.8050957E3,5.6377876E3,3.794503E3,9.972556E3,1.1935192E4,1.6106568E4,4.9917526E2,1.1928638E4,1.2369123E4,7.8880327E3,9.544319E3,1.7365694E2,1.3328892E4,5.6906826E3,5.4673257E3,1.8107655E3,5.9943306E3,1.1722793E3,4.4655083E3,3.7308384E3,6.3664577E1,1.5470908E2,9.817847E3,4.5667246E3,7.368468E3,5.2459247E2,1.5581976E4,5.944573E1,4.3972952E2,3.627148E3,8.30149E3,6.997136E1,1.2299152E4,7.856044E3,3.198908E1,3.07365E2,9.236955E3,1.4722942E2,2.6427528E1,9.50107E3,3.8278213E3,5.627578E3,6.310464E1,2.6034595E3,2.8638662E3,1.6800701E3,1.3069537E2,3.2595117E3,2.7348188E3],"tree_param":{"num_deleted":"0","num_feature":"31","num_nodes":"63","size_leaf_vector":"1"}},{"base_weights":[1.9986546E-3,-1.9988798E-1,7.0383646E-2,-3.9954367E-1,-1.4626047E-1,1.903144E-2,1.6479535E-1,-4.5765147E-1,-3.3697438E-1,-2.0855083E-1,-1.107363E-1,-1.3051704E-2,7.3865764E-2,1.5285587E-1,2.970036E-1,-1.2521012E-1,-4.7133535E-1,-8.9157686E-2,-3.8829705E-1,-2.7362967E-1,-1.5913682E-1,-2.3869245E-1,-9.5319204E-2,-6.2498744E-3,-2.054454E-1,7.7668704E-2,-4.344401E-1,1.9974041E-1,1.2767096E-1,2.6958984E-1,1.1495858E0,3.253075E-2,-1.6619986E-2,-2.5886754E-4,-1.904181E-2,1.5637018E-2,-7.8073815E-3,1.1329816E-3,-1.631095E-2,-6.9551705E-4,-1.1797158E-2,-7.142932E-3,6.7486563E-3,-1.0125798E-2,3.148296E-2,-4.473579E-3,5.475854E-3,-2.1828928E-3,5.561693E-4,4.0304787E-3,-1.1525068E-2,2.3442367E-3,7.1750456E-3,-2.4520477E-2,-4.878891E-3,-5.331114E-3,8.85582E-3,1.0387447E-2,4.392743E-3,3.3437614E-3,1.8017258E-2,1.4411989E-2,5.7072565E-2],"categories":[],"categories_nodes":[],"categories_segments":[],"categories_sizes":[],"default_left":[0,0,0,0,0,0,0,0,0,0,0,0,0,0,0,0,0,0,0,0,0,0,0,0,0,0,0,0,0,0,0,0,0,0,0,0,0,0,0,0,0,0,0,0,0,0,0,0,0,0,0,0,0,0,0,0,0,0,0,0,0,0,0],"id":19,"left_children":[1,3,5,7,9,11,13,15,17,19,21,23,25,27,29,31,33,35,37,39,41,43,45,47,49,51,53,55,57,59,61,-1,-1,-1,-1,-1,-1,-1,-1,-1,-1,-1,-1,-1,-1,-1,-1,-1,-1,-1,-1,-1,-1,-1,-1,-1,-1,-1,-1,-1,-1,-1,-1],"loss_changes":[1.2359344E3,2.424107E2,3.241881E2,1.7199402E1,3.9459137E1,7.620871E1,3.7095642E1,1.1174194E1,2.9341248E1,2.0761688E1,2.2383179E1,3.573711E1,3.0907036E1,2.5457672E1,4.511267E1,2.748488E1,5.1676636E0,2.0343195E1,1.5595825E1,1.5222427E1,2.3534348E1,1.8258759E1,3.896653E1,2.5710243E1,2.3657795E1,3.0738762E1,6.4747467E0,5.4473175E1,3.307573E1,6.348674E1,1.250399E1,0E0,0E0,0E0,0E0,0E0,0E0,0E0,0E0,0E0,0E0,0E0,0E0,0E0,0E0,0E0,0E0,0E0,0E0,0E0,0E0,0E0,0E0,0E0,0E0,0E0,0E0,0E0,0E0,0E0,0E0,0E0,0E0],"parents":[2147483647,0,0,1,1,2,2,3,3,4,4,5,5,6,6,7,7,8,8,9,9,10,10,11,11,12,12,13,13,14,14,15,15,16,16,17,17,18,18,19,19,20,20,21,21,22,22,23,23,24,24,25,25,26,26,27,27,28,28,29,29,30,30],"right_children":[2,4,6,8,10,12,14,16,18,20,22,24,26,28,30,32,34,36,38,40,42,44,46,48,50,52,54,56,58,60,62,-1,-1,-1,-1,-1,-1,-1,-1,-1,-1,-1,-1,-1,-1,-1,-1,-1,-1,-1,-1,-1,-1,-1,-1,-1,-1,-1,-1,-1,-1,-1,-1],"split_conditions":[2.4390244E-1,1.6E-1,3.0769232E-1,1.25E-1,2.1052632E-1,2.512E-1,3.6363637E-1,-3.1092308E-2,-2.2605763E-1,-4.511111E-3,-1.8333334E-1,5.277778E-1,1E2,1.2E1,4.5833334E-1,7E0,-4.2857143E-1,1E0,-8.9955024E-2,-1.265857E-1,8.4745765E-1,7.214E-1,1.4272222E-1,3.627E-1,3E1,2.882E-1,2.9411766E-1,-1.6374445E-1,2.116E-1,-5E-2,-1.8057894E-2,3.253075E-2,-1.6619986E-2,-2.5886754E-4,-1.904181E-2,1.5637018E-2,-7.8073815E-3,1.1329816E-3,-1.631095E-2,-6.9551705E-4,-1.1797158E-2,-7.142932E-3,6.7486563E-3,-1.0125798E-2,3.148296E-2,-4.473579E-3,5.475854E-3,-2.1828928E-3,5.561693E-4,4.0304787E-3,-1.1525068E-2,2.3442367E-3,7.1750456E-3,-2.4520477E-2,-4.878891E-3,-5.331114E-3,8.85582E-3,1.0387447E-2,4.392743E-3,3.3437614E-3,1.8017258E-2,1.4411989E-2,5.7072565E-2],"split_indices":[14,14,14,14,14,23,14,20,18,20,7,15,27,25,6,25,7,28,4,18,9,22,18,21,27,23,14,18,22,8,18,0,0,0,0,0,0,0,0,0,0,0,0,0,0,0,0,0,0,0,0,0,0,0,0,0,0,0,0,0,0,0,0],"split_type":[0,0,0,0,0,0,0,0,0,0,0,0,0,0,0,0,0,0,0,0,0,0,0,0,0,0,0,0,0,0,0,0,0,0,0,0,0,0,0,0,0,0,0,0,0,0,0,0,0,0,0,0,0,0,0,0,0,0,0,0,0,0,0],"sum_hessian":[8.952036E4,2.2649871E4,6.6870484E4,4.7938833E3,1.7855988E4,4.331367E4,2.3556816E4,2.4814558E3,2.3124272E3,6.4821274E3,1.1373861E4,2.7324975E4,1.5988695E4,2.1608322E4,1.948494E3,9.8793274E1,2.3826626E3,3.9754196E2,1.9148854E3,2.794792E3,3.6873354E3,1.2207903E3,1.015307E4,2.6393422E4,9.315529E2,1.5870999E4,1.176964E2,7.547294E3,1.4061027E4,1.8891831E3,5.931092E1,2.2832352E1,7.596092E1,2.4135406E1,2.358527E3,7.125834E1,3.2628363E2,8.52718E1,1.8296135E3,2.1497998E2,2.579812E3,3.481687E3,2.0564847E2,1.2046678E3,1.6122429E1,9.47962E3,6.734501E2,7.7691035E3,1.8624318E4,1.9775308E2,7.3379987E2,1.3368021E4,2.5029773E3,7.407913E1,4.361727E1,4.6021436E2,7.0870796E3,1.6726826E3,1.2388345E4,9.323132E2,9.5686993E2,1.6108736E1,4.3202187E1],"tree_param":{"num_deleted":"0","num_feature":"31","num_nodes":"63","size_leaf_vector":"1"}},{"base_weights":[-7.255443E-5,2.9433346E-1,-2.54793E-1,1.6355538E-1,6.171459E-1,-1.5893927E-1,-4.4544366E-1,7.870212E-2,2.7597156E-1,5.1560944E-1,8.897468E-1,-2.2157463E-1,-8.975906E-2,-5.3695256E-1,-3.7512746E-1,-8.237021E-3,9.6827716E-2,3.5752538E-1,2.24331E-1,6.2131023E-1,4.7250924E-1,1.0017198E0,8.132951E-1,-2.2520399E-1,1.8881513E-1,-1.9741876E-1,-6.3004315E-2,-6.122786E-1,-4.9919578E-1,-3.6165303E-1,-5.432308E-1,1.01098595E-2,-2.254268E-3,3.188507E-3,8.775874E-3,1.35922395E-2,2.8729422E-2,7.977612E-3,1.3834366E-2,3.3032622E-2,2.2694344E-2,1.4041079E-2,2.0549493E-2,4.2475514E-2,3.3847306E-2,3.312737E-2,-3.1937154E-3,-9.682937E-3,-6.655084E-3,5.1036958E-2,-9.433107E-3,-8.178581E-3,5.1852975E-2,-2.7035912E-3,2.1655465E-2,-2.501918E-2,-1.6067263E-2,-2.0162314E-2,1.696842E-2,-1.50323985E-2,-9.078443E-3,-2.227414E-2,-1.951192E-4],"categories":[],"categories_nodes":[],"categories_segments":[],"categories_sizes":[],"default_left":[0,0,0,0,0,0,0,0,0,0,0,0,0,0,0,0,0,0,0,0,0,0,0,0,0,0,0,0,0,0,0,0,0,0,0,0,0,0,0,0,0,0,0,0,0,0,0,0,0,0,0,0,0,0,0,0,0,0,0,0,0,0,0],"id":20,"left_children":[1,3,5,7,9,11,13,15,17,19,21,23,25,27,29,31,33,35,37,39,41,43,45,47,49,51,53,55,57,59,61,-1,-1,-1,-1,-1,-1,-1,-1,-1,-1,-1,-1,-1,-1,-1,-1,-1,-1,-1,-1,-1,-1,-1,-1,-1,-1,-1,-1,-1,-1,-1,-1],"loss_changes":[8.155598E3,2.1295322E3,1.0654058E3,3.4242505E2,4.019673E2,1.6808105E2,1.25223145E2,3.2254303E1,6.489844E1,4.7886475E1,3.2779053E1,3.0375366E1,5.3076126E1,2.3680908E1,2.4707031E1,4.432663E1,3.547435E1,3.7902588E1,2.848883E1,3.3224487E1,3.746875E1,1.384668E1,3.1397827E1,1.9949768E1,8.294704E1,3.8772568E1,4.0927895E1,7.496216E0,2.5589844E1,1.9340698E1,5.927704E0,0E0,0E0,0E0,0E0,0E0,0E0,0E0,0E0,0E0,0E0,0E0,0E0,0E0,0E0,0E0,0E0,0E0,0E0,0E0,0E0,0E0,0E0,0E0,0E0,0E0,0E0,0E0,0E0,0E0,0E0,0E0,0E0],"parents":[2147483647,0,0,1,1,2,2,3,3,4,4,5,5,6,6,7,7,8,8,9,9,10,10,11,11,12,12,13,13,14,14,15,15,16,16,17,17,18,18,19,19,20,20,21,21,22,22,23,23,24,24,25,25,26,26,27,27,28,28,29,29,30,30],"right_children":[2,4,6,8,10,12,14,16,18,20,22,24,26,28,30,32,34,36,38,40,42,44,46,48,50,52,54,56,58,60,62,-1,-1,-1,-1,-1,-1,-1,-1,-1,-1,-1,-1,-1,-1,-1,-1,-1,-1,-1,-1,-1,-1,-1,-1,-1,-1,-1,-1,-1,-1,-1,-1],"split_conditions":[9.7402595E-2,5.882353E-1,4.4306844E-1,4.5454547E-1,7.751938E-1,2.857143E-1,1.4285715E-1,2.726E-1,-2.9735355E-2,-5.126263E-1,7.1428575E-2,4.2E1,2.304E-1,8.3333336E-2,7.443E-1,-2.8520498E-2,4.387E-1,1.9023986E-1,5.235E-1,2.7E1,4.214E-1,1.2528199E-1,9.5238096E-1,2.3E1,2.4642289E-1,2.0277777E-1,5.68E-1,1E0,9.433962E-1,7.692308E-1,3.15E1,1.01098595E-2,-2.254268E-3,3.188507E-3,8.775874E-3,1.35922395E-2,2.8729422E-2,7.977612E-3,1.3834366E-2,3.3032622E-2,2.2694344E-2,1.4041079E-2,2.0549493E-2,4.2475514E-2,3.3847306E-2,3.312737E-2,-3.1937154E-3,-9.682937E-3,-6.655084E-3,5.1036958E-2,-9.433107E-3,-8.178581E-3,5.1852975E-2,-2.7035912E-3,2.1655465E-2,-2.501918E-2,-1.6067263E-2,-2.0162314E-2,1.696842E-2,-1.50323985E-2,-9.078443E-3,-2.227414E-2,-1.951192E-4],"split_indices":[15,12,15,12,12,12,12,22,0,15,10,25,22,12,21,15,21,1,22,27,22,18,11,25,15,8,21,30,9,9,26,0,0,0,0,0,0,0,0,0,0,0,0,0,0,0,0,0,0,0,0,0,0,0,0,0,0,0,0,0,0,0,0],"split_type":[0,0,0,0,0,0,0,0,0,0,0,0,0,0,0,0,0,0,0,0,0,0,0,0,0,0,0,0,0,0,0,0,0,0,0,0,0,0,0,0,0,0,0,0,0,0,0,0,0,0,0,0,0,0,0,0,0,0,0,0,0,0,0],"sum_hessian":[1.0875208E5,5.0446008E4,5.830607E4,3.5902836E4,1.4543174E4,3.8800594E4,1.9505475E4,2.0461105E4,1.5441729E4,1.0598702E4,3.9444717E3,2.036164E4,1.8438955E4,8.472012E3,1.1033463E4,3.5290576E3,1.6932049E4,5.983839E3,9.45789E3,3.0653567E3,7.5333457E3,1.5949938E3,2.3494778E3,2.0183836E4,1.7780464E2,3.6681985E3,1.4770756E4,2.822723E3,5.6492896E3,1.0218164E4,8.1529846E2,5.48401E2,2.9806567E3,1.4859584E4,2.0724644E3,5.70577E3,2.7806857E2,7.8529565E3,1.6049333E3,6.365048E2,2.4288518E3,1.9118479E3,5.6214976E3,1.1454263E3,4.495675E2,2.3111343E3,3.8343426E1,1.5681989E4,4.501846E3,4.9447395E1,1.2835725E2,3.651903E3,1.6295416E1,1.4660581E4,1.1017512E2,2.653921E3,1.6880197E2,5.620259E3,2.9030434E1,9.244027E3,9.741367E2,7.949622E2,2.0336235E1],"tree_param":{"num_deleted":"0","num_feature":"31","num_nodes":"63","size_leaf_vector":"1"}},{"base_weights":[-1.0243632E-3,-2.1100432E-1,3.011798E-1,-3.832053E-1,-7.992617E-2,1.7613034E-1,5.0675786E-1,-5.561522E-1,-3.0870304E-1,-1.6481254E-1,-2.2001542E-2,1.22129545E-1,2.4587679E-1,4.1798815E-1,6.3388145E-1,-6.3177115E-1,-4.9746594E-1,-2.959705E-1,-4.2935905E-1,-1.709247E-1,3.481942E-2,8.9868516E-2,-3.361226E-2,1.2529264E-1,-3.4038576E-1,6.6437864E-1,2.4059801E-1,4.6988574E-1,3.7443373E-1,7.879089E-1,5.8705974E-1,-2.563807E-2,-6.7186365E-3,-2.020115E-2,1.5978033E-3,-1.2003643E-2,1.1909474E-2,-2.469224E-2,-1.4591499E-2,-5.325462E-3,-7.886543E-3,-7.804134E-3,6.1172354E-3,1.8354527E-3,1.4641669E-2,-4.6543083E-3,-6.1231066E-4,3.4355375E-3,6.7193606E-3,-2.0125065E-2,2.5615811E-2,-1.4324124E-3,3.2065284E-2,1.0109812E-2,2.9635513E-3,1.8273149E-2,2.7274074E-2,1.5080276E-2,-1.9313883E-2,3.2177728E-2,2.0597916E-2,2.6391724E-2,2.1138126E-2],"categories":[],"categories_nodes":[],"categories_segments":[],"categories_sizes":[],"default_left":[0,0,0,0,0,0,0,0,0,0,0,0,0,0,0,0,0,0,0,0,0,0,0,0,0,0,0,0,0,0,0,0,0,0,0,0,0,0,0,0,0,0,0,0,0,0,0,0,0,0,0,0,0,0,0,0,0,0,0,0,0,0,0],"id":21,"left_children":[1,3,5,7,9,11,13,15,17,19,21,23,25,27,29,31,33,35,37,39,41,43,45,47,49,51,53,55,57,59,61,-1,-1,-1,-1,-1,-1,-1,-1,-1,-1,-1,-1,-1,-1,-1,-1,-1,-1,-1,-1,-1,-1,-1,-1,-1,-1,-1,-1,-1,-1,-1,-1],"loss_changes":[7.747201E3,1.6258772E3,1.2865371E3,4.0089014E2,2.0109702E2,1.1715332E2,2.132456E2,4.1163086E1,3.3232666E1,2.0261688E1,3.1579048E1,2.5688171E1,2.974945E1,2.4941895E1,5.5514893E1,1.722998E1,2.1535522E1,4.8256714E1,2.4850708E1,1.590152E1,1.341859E1,2.770575E1,3.335139E1,2.9274689E1,1.9338074E1,1.628424E1,2.7076782E1,1.36414795E1,1.3557251E1,7.624756E0,2.4986816E1,0E0,0E0,0E0,0E0,0E0,0E0,0E0,0E0,0E0,0E0,0E0,0E0,0E0,0E0,0E0,0E0,0E0,0E0,0E0,0E0,0E0,0E0,0E0,0E0,0E0,0E0,0E0,0E0,0E0,0E0,0E0,0E0],"parents":[2147483647,0,0,1,1,2,2,3,3,4,4,5,5,6,6,7,7,8,8,9,9,10,10,11,11,12,12,13,13,14,14,15,15,16,16,17,17,18,18,19,19,20,20,21,21,22,22,23,23,24,24,25,25,26,26,27,27,28,28,29,29,30,30],"right_children":[2,4,6,8,10,12,14,16,18,20,22,24,26,28,30,32,34,36,38,40,42,44,46,48,50,52,54,56,58,60,62,-1,-1,-1,-1,-1,-1,-1,-1,-1,-1,-1,-1,-1,-1,-1,-1,-1,-1,-1,-1,-1,-1,-1,-1,-1,-1,-1,-1,-1,-1,-1,-1],"split_conditions":[2.2804055E-1,3.5714287E-1,6.756757E-1,2.0833333E-1,4.2553192E-1,6.0240966E-1,6.639676E-1,1.4285715E-1,6.369427E-1,3.4E1,-1.3157895E-2,6.349207E-2,5.5167057E-2,1.638E-1,1.1111111E-1,4.2625748E-2,7.608695E-2,7.214E-1,-6.140351E-2,-6.7657895E-2,1.3E1,9.1533184E-2,-1.08404875E-1,2.9644808E-1,1.1633987E-1,1.695E-1,2.9E1,1.2026144E-1,5.44E-1,1E0,1.18E-1,-2.563807E-2,-6.7186365E-3,-2.020115E-2,1.5978033E-3,-1.2003643E-2,1.1909474E-2,-2.469224E-2,-1.4591499E-2,-5.325462E-3,-7.886543E-3,-7.804134E-3,6.1172354E-3,1.8354527E-3,1.4641669E-2,-4.6543083E-3,-6.1231066E-4,3.4355375E-3,6.7193606E-3,-2.0125065E-2,2.5615811E-2,-1.4324124E-3,3.2065284E-2,1.0109812E-2,2.9635513E-3,1.8273149E-2,2.7274074E-2,1.5080276E-2,-1.9313883E-2,3.2177728E-2,2.0597916E-2,2.6391724E-2,2.1138126E-2],"split_indices":[15,10,10,10,10,10,15,10,12,26,2,2,17,22,14,0,2,22,4,19,25,0,18,15,17,22,25,17,22,30,22,0,0,0,0,0,0,0,0,0,0,0,0,0,0,0,0,0,0,0,0,0,0,0,0,0,0,0,0,0,0,0,0],"split_type":[0,0,0,0,0,0,0,0,0,0,0,0,0,0,0,0,0,0,0,0,0,0,0,0,0,0,0,0,0,0,0,0,0,0,0,0,0,0,0,0,0,0,0,0,0,0,0,0,0,0,0,0,0,0,0,0,0,0,0,0,0,0,0],"sum_hessian":[1.2208433E5,7.203383E4,5.00505E4,3.1132078E4,4.0901754E4,3.1121928E4,1.8928572E4,9.370926E3,2.1761152E4,1.6588441E4,2.431331E4,1.7543309E4,1.357862E4,1.1148625E4,7.7799463E3,4.08973E3,5.281196E3,1.9687824E4,2.073327E3,1.6096266E4,4.9217703E2,2.2847014E3,2.202861E4,1.7425084E4,1.1822329E2,1.6734933E2,1.34112705E4,5.0815645E3,6.067061E3,1.8094648E3,5.9704814E3,4.0097627E3,7.996718E1,5.208149E3,7.30468E1,1.9552783E4,1.3504146E2,5.2758594E2,1.545741E3,6.600452E3,9.4958125E3,1.6652028E2,3.2565674E2,1.9721528E3,3.125486E2,3.988369E3,1.804024E4,9.064184E3,8.360901E3,1.0190344E2,1.6319849E1,2.7429619E1,1.3991971E2,1.2498363E4,9.1290656E2,4.790122E3,2.9144202E2,6.0495796E3,1.7481417E1,1.7039377E3,1.0552712E2,2.6588115E3,3.3116702E3],"tree_param":{"num_deleted":"0","num_feature":"31","num_nodes":"63","size_leaf_vector":"1"}},{"base_weights":[1.4458525E-3,-1.9961345E-1,6.908732E-2,-4.0096304E-1,-1.463603E-1,1.890204E-2,1.6104124E-1,-4.557073E-1,-3.424968E-1,-2.1327634E-1,-1.0829582E-1,-4.2309416E-3,9.636197E-2,1.5226053E-1,3.5033247E-1,2.0529751E-3,-4.713651E-1,-3.858476E-1,-1.2115767E-1,-2.937119E-1,-1.7653956E-1,-2.8132263E-1,-9.50774E-2,2.2845054E-2,-5.443064E-2,-4.029898E-1,1.0190219E-1,2.0265757E-1,1.24877706E-1,6.6792375E-1,2.3941602E-1,-1.5224059E-2,5.0812073E-2,-1.9645508E-2,-1.0124126E-2,2.4039751E-4,-1.618169E-2,-9.733962E-3,2.019923E-2,-1.3435645E-2,4.76266E-4,-9.365594E-3,-3.6182213E-3,-6.6623585E-3,-1.750525E-2,3.198379E-2,-3.9098235E-3,1.5099295E-3,-3.062211E-3,4.3531355E-2,-2.2839478E-3,4.2813257E-3,-1.9889658E-2,-2.3772265E-3,4.753767E-3,9.123891E-3,-5.8757393E-3,2.8192804E-3,7.3056957E-3,8.130877E-3,3.9174974E-2,4.808815E-2,7.83642E-3],"categories":[],"categories_nodes":[],"categories_segments":[],"categories_sizes":[],"default_left":[0,0,0,0,0,0,0,0,0,0,0,0,0,0,0,0,0,0,0,0,0,0,0,0,0,0,0,0,0,0,0,0,0,0,0,0,0,0,0,0,0,0,0,0,0,0,0,0,0,0,0,0,0,0,0,0,0,0,0,0,0,0,0],"id":22,"left_children":[1,3,5,7,9,11,13,15,17,19,21,23,25,27,29,31,33,35,37,39,41,43,45,47,49,51,53,55,57,59,61,-1,-1,-1,-1,-1,-1,-1,-1,-1,-1,-1,-1,-1,-1,-1,-1,-1,-1,-1,-1,-1,-1,-1,-1,-1,-1,-1,-1,-1,-1,-1,-1],"loss_changes":[1.2191012E3,2.4184473E2,3.0951505E2,1.4867737E1,4.5404785E1,7.776819E1,3.9257996E1,1.7487091E1,2.1844604E1,1.9017517E1,2.5961655E1,4.5423065E1,2.762194E1,3.1177307E1,3.668593E1,4.000618E1,9.955261E0,1.4044678E1,2.889166E1,2.615239E1,2.1983551E1,1.43355255E1,2.5249046E1,3.2155018E1,3.5660175E1,5.356905E0,2.6995872E1,7.087518E1,4.605568E1,3.8845757E1,3.2251686E1,0E0,0E0,0E0,0E0,0E0,0E0,0E0,0E0,0E0,0E0,0E0,0E0,0E0,0E0,0E0,0E0,0E0,0E0,0E0,0E0,0E0,0E0,0E0,0E0,0E0,0E0,0E0,0E0,0E0,0E0,0E0,0E0],"parents":[2147483647,0,0,1,1,2,2,3,3,4,4,5,5,6,6,7,7,8,8,9,9,10,10,11,11,12,12,13,13,14,14,15,15,16,16,17,17,18,18,19,19,20,20,21,21,22,22,23,23,24,24,25,25,26,26,27,27,28,28,29,29,30,30],"right_children":[2,4,6,8,10,12,14,16,18,20,22,24,26,28,30,32,34,36,38,40,42,44,46,48,50,52,54,56,58,60,62,-1,-1,-1,-1,-1,-1,-1,-1,-1,-1,-1,-1,-1,-1,-1,-1,-1,-1,-1,-1,-1,-1,-1,-1,-1,-1,-1,-1,-1,-1,-1,-1],"split_conditions":[2.4390244E-1,1.6E-1,3.0769232E-1,1.25E-1,2.1052632E-1,2.633E-1,3.354E-1,-3.621765E-2,9.097692E-2,1.683E-1,-1.0721248E-1,1.1388889E-1,1.985E-1,1.2E1,-2.3530303E-2,1E0,1.15384616E-1,-8.9955024E-2,8.2613224E-1,4.0935673E-2,7.246377E-1,-1.3210446E-1,-1.0714286E-1,1E0,-4.0874055E-1,9.069659E-2,-1.8641579E-1,5.555556E-1,-1.5151516E-2,2E0,3.125E-1,-1.5224059E-2,5.0812073E-2,-1.9645508E-2,-1.0124126E-2,2.4039751E-4,-1.618169E-2,-9.733962E-3,2.019923E-2,-1.3435645E-2,4.76266E-4,-9.365594E-3,-3.6182213E-3,-6.6623585E-3,-1.750525E-2,3.198379E-2,-3.9098235E-3,1.5099295E-3,-3.062211E-3,4.3531355E-2,-2.2839478E-3,4.2813257E-3,-1.9889658E-2,-2.3772265E-3,4.753767E-3,9.123891E-3,-5.8757393E-3,2.8192804E-3,7.3056957E-3,8.130877E-3,3.9174974E-2,4.808815E-2,7.83642E-3],"split_indices":[14,14,14,14,14,23,23,20,19,23,3,17,21,25,20,29,17,4,15,1,9,3,5,29,19,17,19,10,3,24,14,0,0,0,0,0,0,0,0,0,0,0,0,0,0,0,0,0,0,0,0,0,0,0,0,0,0,0,0,0,0,0,0],"split_type":[0,0,0,0,0,0,0,0,0,0,0,0,0,0,0,0,0,0,0,0,0,0,0,0,0,0,0,0,0,0,0,0,0,0,0,0,0,0,0,0,0,0,0,0,0,0,0,0,0,0,0,0,0,0,0,0,0,0,0,0,0,0,0],"sum_hessian":[8.9639086E4,2.2564457E4,6.7074625E4,4.7178633E3,1.7846594E4,4.3393984E4,2.3680645E4,2.4320928E3,2.2857705E3,6.4683037E3,1.137829E4,3.3414562E4,9.97942E3,2.2633088E4,1.0475574E3,8.025623E1,2.3518367E3,1.910409E3,3.753615E2,2.024947E3,4.443357E3,8.0557733E2,1.0572713E4,2.170577E4,1.1708794E4,1.08519554E2,9.8709E3,7.96456E3,1.4668527E4,2.6962018E2,7.7793726E2,6.213115E1,1.8125082E1,2.1549119E3,1.9692464E2,8.677885E1,1.8236301E3,3.1471558E2,6.064593E1,1.7795717E3,2.4537535E2,2.6603735E3,1.7829833E3,4.6608066E2,3.3949664E2,3.0437798E1,1.0542275E4,1.8877129E4,2.8286401E3,2.6239374E1,1.1682555E4,1.6739687E1,9.177987E1,9.3726166E2,8.933639E3,7.4248276E3,5.397324E2,7.556599E3,7.1119277E3,1.0899088E2,1.6062929E2,3.2382084E1,7.455551E2],"tree_param":{"num_deleted":"0","num_feature":"31","num_nodes":"63","size_leaf_vector":"1"}},{"base_weights":[-5.8659434E-4,2.759042E-1,-2.551965E-1,1.5269399E-1,5.9046125E-1,-1.6091648E-1,-4.374442E-1,7.381517E-2,2.6377615E-1,4.97294E-1,8.408414E-1,-2.1672384E-1,-9.448406E-2,-5.422323E-1,-3.7378025E-1,1.0696935E-1,1.9254202E-2,3.43539E-1,2.152332E-1,6.05689E-1,4.5315516E-1,1.0264714E0,7.884281E-1,-2.2011118E-1,1.763448E-1,-1.9856688E-1,-6.8227075E-2,-4.9145627E-1,-5.9227574E-1,-4.3557486E-1,-3.4038192E-1,5.6484878E-2,4.205944E-3,6.6178996E-4,3.7769716E-2,1.1967114E-2,1.9160898E-2,7.5486875E-3,1.383916E-2,1.9462245E-2,2.7406536E-2,1.8414509E-2,-1.4976661E-2,3.594134E-2,4.2724125E-2,3.4388144E-2,2.6820738E-2,-8.991771E-3,1.910796E-4,4.443918E-2,-1.1042847E-2,2.8685667E-2,-8.506214E-3,-4.493759E-3,-6.143238E-4,-2.2207532E-2,-1.5817795E-2,-2.382499E-2,1.2577788E-3,-3.6948957E-3,-1.8115042E-2,